1508 100
<PAD_OR_OOV> 0.042198062 0.01329428 0.09530029 0.1529586 -0.11256907 -0.039311066 -0.10326747 -0.037560105 -0.012265697 -0.1585244 0.062386185 -0.036684275 0.09662077 -0.08506631 -0.13420504 0.09197712 -0.13798407 0.14984697 0.027442008 0.07928091 0.006434098 -0.058779947 -0.11691135 -0.11613624 0.02631849 0.11221877 0.055777863 -0.112618335 0.012948468 0.06814064 0.10192531 -0.081318684 -0.16069677 -0.0015901625 0.01095292 0.01613313 0.15742865 0.14120176 -0.095149964 0.111671716 0.1693002 -0.0600492 0.14046219 -0.08103985 -0.116664365 -0.14105058 0.04347995 0.028935254 0.050229132 0.012885451 -0.048670404 -0.1646593 -0.073278524 0.097066194 0.008705094 -0.15696657 0.09287 0.06895618 -0.07893008 0.11054486 0.0389373 0.010400593 -0.0017372072 0.061196998 0.13430732 -0.14091343 -0.028075323 0.1480707 -0.13005719 -0.16170636 0.07687354 0.027447388 -0.1228485 -0.06576113 0.064094365 -0.15511608 0.12736356 -0.13716307 0.025513351 -0.15781048 0.021134406 0.14796907 0.0077952743 -0.115864106 -0.101567626 -0.13927102 0.108688384 0.07749647 -0.08006673 -0.14926933 -0.17002839 -0.09024285 0.14882779 -0.059817366 -0.16536583 -6.702542e-05 -0.07859439 0.05950938 0.104601085 -0.16785444
data -0.16942234 0.16670427 -0.16385671 -0.07097807 0.13816524 -0.06982411 0.17679568 0.17624183 -0.06833234 -0.041312303 0.14199327 -0.15351325 0.13208628 -0.15380798 0.050348885 0.047870252 -0.016785402 0.12334398 -0.011142224 0.062898956 -0.17742671 0.14398265 0.14688978 -0.14174843 -0.15887265 -0.047249313 0.034324247 0.0058741206 -0.12553725 -0.10913856 -0.14196424 0.1292024 -0.15962201 0.19059679 0.00018509547 -0.12659125 -0.046707384 -0.011015963 0.0371398 0.06217671 0.18216042 0.040630005 0.10607326 0.033599816 0.022698367 -0.09177736 0.021111937 -0.15721105 -0.1564467 0.16522951 -0.087479934 -0.043925993 0.18067452 0.15399554 0.08668551 -0.10353991 -0.118616395 -0.08539066 0.12092754 -0.027763527 -0.13104135 -0.027656374 -0.051123437 0.10509947 0.18954381 -0.0038650075 0.15737018 0.14134566 -0.05739477 -0.044396907 -0.12455277 0.078852065 0.11442011 -0.1831684 0.046993937 0.06966315 0.1107426 0.022196531 -0.12672246 -0.18358174 0.060594693 0.08483372 0.14739825 -0.06341782 -0.0020788596 0.08199799 -0.032719772 0.039750893 0.09106821 -0.071273595 -0.096904986 0.078414895 0.14518693 -0.027539311 -0.07281088 0.15015836 0.0045749876 0.05072173 0.07828192 -0.12626195
int 0.06831821 -0.06631492 0.04860431 -0.097656 0.05938041 -0.088941574 0.1070421 -0.24574436 0.044372268 -0.09316286 -0.023758074 0.10413946 -0.020380953 -0.04041418 0.23761648 0.23022853 -0.17038319 0.12589689 -0.1655054 0.14576644 -0.2582712 0.034576856 -0.23115885 0.12410191 0.22935821 -0.20927994 -0.20887487 0.042816654 0.0862984 0.07541651 -0.26225257 0.18725091 -0.1069557 0.22251284 0.21983512 -0.006167524 0.2447145 -0.012277604 -0.17090955 0.1016123 0.03849026 -0.18100071 0.1532342 0.092156254 0.074103184 -0.19997394 0.19558269 -0.054313898 -0.10012567 -0.14243145 0.2043262 0.25107017 -0.25867805 -0.060249563 0.2291961 -0.14306243 0.09655509 0.08409221 -0.033735335 -0.11293981 -0.16978094 0.13090467 -0.036459357 0.25034043 0.06277575 0.28819695 -0.015662786 0.05286303 0.23161149 -0.048483472 -0.20971696 -0.14269362 -0.18271019 -0.04307288 0.12782136 -0.044774167 0.15872099 0.09521964 -0.24226852 -0.014808384 0.1360364 -0.121836595 0.13037184 -0.2550092 -0.23666324 -0.18500358 -0.03433877 -0.038802207 0.19951747 0.29678202 -0.17214578 0.10409292 -0.08617237 -0.17763807 -0.12318558 -0.25871435 0.036357623 -0.18437622 -0.18218116 -0.045044262
any -0.078835234 -0.10553567 -0.023313686 -0.16738124 0.0482728 0.044580862 0.027645202 -0.07255607 -0.058467764 -0.17277507 -0.09807064 -0.19139956 0.2138771 0.14923327 0.16153902 0.193907 -0.020064814 0.17030694 0.09341724 -0.077251285 0.11344769 0.19624846 0.18380098 0.0150311645 0.104150034 0.08824296 -0.038769465 -0.063464016 -0.082967855 -0.048311256 -0.1620338 -0.08935 -0.08270592 0.094555445 0.062372655 0.03599798 -0.041506022 -0.08839223 0.15723641 0.05125609 0.0325062 0.10085575 -0.060541894 0.12144776 -0.16899242 -0.14867437 -0.016789226 -0.13741982 -0.06898649 -0.13637231 0.1339969 -0.22079636 -0.11727207 0.13500428 0.16730498 -0.15294276 0.0026137114 0.123918034 -0.12486806 0.007131482 -0.0099317515 0.07667469 0.13079962 -0.037354875 -0.083623946 0.012007534 -0.09926069 -0.13565445 -0.20905036 -0.091210745 0.11877212 -0.117471 -0.050017484 0.065749675 -0.028881343 0.092706785 -0.023142932 -0.17060849 -0.18727018 -0.10936187 0.0074594645 0.17957817 0.04282777 0.12770644 -0.23777775 0.14933684 -0.045163326 -0.03557915 0.11094159 -0.11195352 -0.19498885 0.088482566 0.018226309 -0.12406424 0.12820166 -0.20582797 -0.08916824 0.12848437 -0.05672467 0.061276082
result -0.06460581 -0.09575576 -0.116793916 -0.15299183 0.058038045 0.16968265 0.17390405 0.18961911 -0.14080518 -0.041295283 0.20015809 -0.06942242 0.10399231 -0.17370364 0.18603605 -0.081393264 0.006556625 0.23382692 0.19413738 -0.043747216 0.13366446 0.020634849 0.116914466 0.014506183 -0.115367174 -0.043350957 0.067707464 -0.14176165 -0.16443792 -0.03846379 0.084511705 0.08993202 0.11871612 -0.0551239 0.15392007 0.02577891 -0.1576891 -0.033641025 0.2604632 -0.09516582 0.20460919 0.013677027 -0.010678223 0.0010630819 0.034392066 0.13212816 -0.0827317 0.034795146 -0.09301354 -0.10381083 -0.09962655 0.040978856 0.03437716 -0.07365554 -0.15865146 0.039432753 0.091841415 0.010545566 -0.0064546587 0.01653977 -0.13422062 0.038165756 -0.17803696 0.16036478 0.122847445 -0.13498037 -0.13478203 0.15944885 -0.22832645 -0.13747497 -0.009539838 -0.088831045 0.15049411 0.07959807 0.15255514 0.16338247 0.15349509 0.01137726 -0.06418599 0.0063008666 0.005391 0.025076838 -0.046968397 0.09776362 0.10611135 -0.035772845 -0.17451182 -0.08684302 0.1437156 -0.06269685 -0.15232374 0.22372764 -0.1481824 -0.028283274 0.009402889 -0.19493961 0.12608728 0.15482065 0.1638953 0.049377285
short -0.17381202 0.21417019 0.026635734 -0.13997652 -0.21370448 -0.22982326 0.18172 0.095010296 0.11221566 -0.23963894 0.092767015 -0.049420293 0.1534014 -0.25644302 -0.090151645 0.044786975 -0.0761161 -0.19460385 -0.18187763 -0.26509243 0.18815453 -0.03678436 0.13431892 -0.01932672 -0.008740662 0.23183681 -0.25623304 -0.15733558 -0.19735174 0.18735497 0.029484753 -0.17107691 -0.1974454 -0.05485502 -0.1741856 -0.2428077 -0.055690467 -0.20666656 0.024368394 -0.033421878 -0.13594528 0.20064266 -0.22900026 -0.22959591 0.23494011 0.16254175 -0.17241065 -0.045057647 -0.13128306 -0.13280241 0.18258098 0.17093067 0.20371915 -0.17197107 0.24724074 -0.18860808 0.11543314 0.11541398 -0.10021271 -0.18516017 -0.040620834 0.2581968 0.21427295 -0.25179002 -0.15654494 -0.32749447 0.23803473 -0.2527183 0.056727663 -0.18393221 -0.035428897 0.0015235933 0.24472019 0.19690378 0.12870161 -0.19263043 0.2253284 -0.25351924 0.078891456 0.1141234 0.19077511 0.22423184 -0.034455918 0.26060942 0.122671016 0.25114816 -0.025168682 0.066549584 0.16929503 -0.2909732 0.043597482 0.21284828 0.10064591 0.006872667 -0.07752008 0.16299374 -0.036329232 -0.07694056 0.16122526 0.24264178
char -0.03904142 -0.06646982 -0.10995354 -0.111501984 -0.14900002 0.24322695 -0.19978678 0.14133285 -0.32463655 -0.19462858 0.15076376 -0.053491727 0.115168855 -0.035259515 -0.26783785 -0.24589872 -0.18131824 -0.075938694 0.14981985 0.00043421806 0.13540405 0.08508139 0.250271 0.25883362 -0.14224264 -0.099709764 0.15327725 -0.115194485 -0.23105693 0.06323319 0.11122114 0.27096123 -0.13228388 -0.1955808 -0.17949313 0.23257051 -0.1321877 -0.00031401232 0.11423143 -0.14337794 0.18457696 0.21631414 0.22202958 0.059673775 -0.2734872 0.16546988 0.25234362 0.027178552 0.26870134 0.25070575 -0.11915778 0.21587211 -0.14345638 0.16496982 0.15838622 0.27242428 -0.10251258 -0.13233633 0.0752613 0.20879602 0.0990148 -0.19875245 -0.088676006 0.11075218 -0.22500065 -0.33327112 0.24159159 -0.13731885 -0.11818553 -0.17806275 0.10095009 0.18030624 0.15060943 -0.2184612 0.06382356 0.22977193 -0.19398363 0.02986226 -0.10027871 0.1423455 0.19489042 -0.07657972 0.21343403 -0.25649282 0.19316314 -0.12893476 -0.10719462 0.2783864 0.03755041 -0.31870386 -0.1517945 -0.25950518 -0.123368815 0.11512759 -0.033521228 0.089526504 0.15125354 -0.13587907 0.23946886 -0.2832037
intt 0.09255532 -0.22686781 -0.23145278 0.099935 0.18965563 0.10967726 0.2507581 0.20561744 0.22153887 0.18600991 -0.23489434 -0.18727492 0.067117184 0.06611748 0.08097477 0.23673816 -0.018686991 -0.13648842 -0.0013235327 0.13474648 -0.17239025 0.016284697 0.10244528 0.20633568 0.14937839 -0.1946902 0.173977 -0.07665667 -0.07127271 0.19935495 0.06897383 -0.28677905 -0.14087567 0.08858336 0.13884737 -0.19503237 -0.25600508 -0.2763043 0.24156834 0.26315138 -0.010521783 0.17007571 -0.22504424 -0.049105056 0.23887804 -0.2033569 -0.18255037 -0.24630961 -0.12776102 -0.1035499 -0.02588992 -0.076931834 0.09872598 0.107707195 0.078271024 0.019749552 -0.013488455 -0.14518222 0.2540324 0.33502018 0.015000289 -0.24111053 0.14457595 -0.11483554 0.04024524 0.2797577 -0.27998775 0.27410063 -0.10781587 -0.020357095 -0.09926584 -0.1451543 -0.120305605 -0.17394382 -0.054433614 -0.16284092 -0.04330706 -0.17741708 0.16407557 -0.23508847 -0.15811713 -0.080403775 -0.096641876 0.32365313 0.1088764 0.14090715 0.05247572 -0.24446955 0.20173693 0.10700871 0.090720855 -0.09309409 0.25110662 -0.041164957 -0.22812109 0.23214531 0.2025557 -0.15404248 -0.17107122 -0.07355459
0 -0.019053854 -0.13052225 -0.19870417 0.09044484 0.04687046 -0.05425856 0.045035414 0.08698929 -0.061628595 0.11133845 -0.13257268 -0.19047874 -0.04940846 -0.071342535 0.18010332 -0.085782684 -0.18826616 0.10010176 0.07110761 0.034857683 -0.06967896 0.05272109 -0.1557099 -0.05637803 0.12701108 0.041443054 0.015617772 0.050049327 -0.14793041 -0.14663516 0.014665526 -0.16237012 -0.10818614 0.0013378488 0.11012577 -0.13385938 0.18372591 0.065609656 0.21079999 -0.0823483 0.19222663 -0.022534631 0.07111099 -0.12561949 -0.17228085 0.0009649527 -0.06954715 0.00027236476 -0.08157017 -0.1059745 0.026929362 -0.002844969 -0.15401685 0.08805895 -0.122818805 0.075554214 0.01902011 0.061670862 0.00036930863 0.2066375 -0.20683722 0.05568958 -0.19676338 -0.06455165 -0.023393339 0.07608682 -0.0711124 0.0023965822 -0.0848747 -0.013636439 -0.16371681 -0.013667692 -0.08196058 0.07967912 0.03967308 -0.13114575 0.092550464 0.077694274 -0.14177956 -0.19666761 -0.09864383 0.14951436 0.14757055 0.09739454 -0.18592764 0.008591045 -0.11329478 0.03306265 -0.15115441 -0.17912272 -0.05279116 0.042582165 -0.013206441 -0.15424122 -0.10785161 -0.15518008 0.1143039 -0.035713673 0.14389418 0.020386385
unsignedint -0.17241678 0.26764378 -0.18552259 -0.16314264 0.12320275 0.084141366 -0.23954296 0.27988464 -0.18855405 0.26770326 0.10883246 -0.17840298 0.06318658 0.2066296 -0.009673608 0.124161355 0.039517455 -0.31118393 0.19110018 0.10515851 0.08005476 0.111457504 -0.093654476 -0.20125319 0.03463392 0.21475545 0.1068388 -0.12701322 -0.16346668 -0.06912243 0.109114856 -0.09626733 0.043145217 -0.008721672 0.27380636 0.12299507 0.23355252 0.1548433 -0.20942213 0.14608957 -0.04259868 0.0028957892 0.24018699 0.047961507 -0.20587265 -0.06321942 0.09182916 0.2518987 -0.13922013 -0.06269573 -0.17762081 -0.22713377 -0.009525733 0.22496861 -0.1864107 0.23754475 -0.1533118 -0.23716643 0.021013515 -0.077255026 0.08045472 -0.24290618 -0.20119211 -0.0141741745 0.21462259 0.3052292 0.24291895 -0.121066526 -0.20651235 0.19633166 0.032135017 -0.1025544 -0.19706686 -0.07080035 -0.022586819 0.1917698 0.25066614 -0.13913251 -0.18957594 -0.19857474 -0.26508963 -0.18286365 -0.20696227 -0.29129857 0.2854465 -0.039810847 0.1958635 -0.23030168 -0.1713435 -0.14094727 -0.05204445 0.18355101 -0.28726065 0.20563394 0.108075455 0.21154751 -0.0047086217 -0.19663085 -0.123609304 -0.13626622
socket -0.005309434 -0.09990979 0.122097574 -0.07253375 0.24302907 -0.1294105 -0.18548879 0.018678665 -0.110487126 -0.22562511 -0.19012609 -0.013461181 0.20562221 -0.01623695 0.23322907 0.29797575 -0.019644693 0.16709481 0.041642062 -0.20487957 -0.090589546 0.2541569 -0.039975964 0.059117395 0.29575315 0.14399803 -0.07120993 -0.17134883 -0.0041955425 0.08721455 -0.11052342 0.17992409 -0.034311317 0.04120389 -0.01264914 -0.17586698 0.14250049 -0.06331883 -0.152931 0.038371302 -0.10904509 -0.21051656 0.11932774 -0.14442585 -0.102791764 0.07771107 0.020479394 -0.0056578494 0.035080284 -0.16354714 0.07241889 -0.21600303 -0.34555802 0.018975677 0.17328162 0.16894454 0.2520948 -0.033183616 0.044476304 -0.027148338 -0.00983454 0.07099212 -0.17164403 0.22401589 0.07426381 0.1251481 -0.055842377 0.0057856585 0.060655087 -0.14080814 0.11904771 -0.01603039 -0.15225089 0.10882458 0.12556578 0.09157026 0.015916742 -0.005793626 -0.113653265 -0.2006361 -0.082526326 0.01800576 0.1871039 0.32047835 -0.102136016 -0.094910115 -0.17670128 0.23946701 -0.01016268 -0.1560183 -0.074593686 0.05910223 -0.28557828 -0.2194929 0.13640769 -0.03142612 0.18760134 -0.037707396 -0.04284274 0.22299638
METHOD_NAME -0.13658802 -0.04745258 -0.18798794 0.13462432 -0.01702914 -0.0011927471 -0.07856803 0.016067624 0.1453671 -0.08099426 -0.12178343 -0.06032436 -0.04701172 0.11128183 -0.03625356 -0.20261358 -0.074138105 -0.06766046 0.21216452 0.08698613 0.02602986 0.09553566 0.11086648 -0.17332794 -0.1666039 -0.092799924 -0.022197368 -0.10528896 -0.16782519 0.080938786 0.03790731 -0.21060817 -0.16547865 0.074353784 -0.041508064 0.052635625 -0.021228455 0.1000519 0.13009976 -0.016161274 0.16980602 0.12888612 0.05124438 0.2101151 0.02141874 0.1762997 0.14422478 -0.010001495 -0.16729258 -0.016071288 -0.05232003 -0.039241686 0.16637649 -0.006526578 -0.17410164 0.041176222 0.03627375 0.1566452 -0.18790045 -0.10997908 -0.09434253 -0.14666113 0.123375274 -0.010346 0.22685963 -0.13435169 0.004990315 0.056512073 0.026238618 0.009339335 -0.06786891 -0.102255 -0.099130265 0.07057292 0.1746993 0.08011869 -0.0880356 0.13976161 0.032170024 -0.17842236 0.10958429 0.14943774 0.043993037 -0.07037473 0.098666966 0.21020746 -0.003159664 -0.16456883 -0.058265585 -0.12777855 -0.10419703 0.21732837 0.07076062 0.10648498 -0.16523887 0.1300431 -0.068453304 0.19907705 -0.041195735 0.15722442
2 -0.11126988 0.30795395 -0.094490595 0.04483709 0.30427605 0.29000816 0.055515584 0.10007819 -0.056979038 0.16060199 0.17858379 0.0024534985 0.07529311 -0.28989315 -0.030249432 -0.060750794 -0.1730222 -0.02073013 -0.3178832 0.1874016 -0.13446979 0.26643434 0.053472854 -0.20084642 0.20458421 0.15361598 -0.2571753 -0.20787208 -0.043339446 0.29066354 0.16581967 0.25466266 -0.29468602 0.25465822 0.039323762 0.01020344 0.238798 -0.28247604 -0.254283 0.2914026 -0.16597627 0.052188225 -0.047171824 0.2689825 0.143631 -0.25803944 0.095945 0.08065648 -0.038187556 -0.03953888 0.20571958 0.12216418 0.10225133 -0.20634264 -0.19489573 -0.072068304 -0.012683167 -0.1720147 0.29584134 -0.2454724 0.005287004 -0.03411616 -0.32747686 0.15928783 0.18112354 -0.1753347 0.14844936 0.26006752 -0.15929312 -0.01156768 0.12755479 -0.32166246 0.22528642 -0.10856464 0.2784909 -0.09157318 0.051648818 -0.03268375 0.02944207 0.13213797 0.20425653 -0.15960002 0.20616867 -0.0039581265 -0.02005497 -0.029729413 -0.33403602 0.30912504 -0.005775782 0.27039525 -0.20156279 -0.11019 -0.19631179 -0.24356459 -0.2906059 0.00866304 -0.10501534 -0.115791224 0.2932557 -0.15175457
service -0.20762266 -0.20109998 -0.050909985 0.014818229 0.13225424 -0.08251146 0.152592 -0.15132456 -0.16645707 0.011101965 -0.14251257 -0.06637844 0.14171211 0.095139384 0.19183296 0.10992617 0.08288129 -0.05664406 0.2063161 -0.12343102 0.17043066 -0.13314775 0.042966243 0.086605296 0.18787606 0.08516234 -0.07544389 0.027904829 -0.014685058 -0.008590214 0.12683636 -0.20557405 -0.17903571 0.06119286 0.18007518 -0.17106554 0.22933774 0.020705085 0.115080975 0.15950444 -0.11894422 -0.17847699 -0.021642467 -0.07746763 -0.12418375 0.030549763 0.10044711 -0.06485694 0.07074521 -0.024964593 0.17410855 -0.10514243 -0.20169608 0.025643688 0.15556474 -0.19945805 0.13904399 0.15246539 -0.007938624 0.1474226 0.07095188 0.13608192 -0.02177101 -0.09487501 -0.095969535 -0.061827656 -0.1601373 -0.15924582 0.09424615 0.087276466 0.12276908 -0.020472042 -0.106325634 0.10759512 -0.10775127 0.10955273 0.07971752 0.059103854 -0.13643941 -0.044144906 -0.013972512 -0.030586189 -0.04801177 0.11069607 0.044011403 0.21679506 0.10495035 -0.014789432 -0.17805995 -0.09098249 -0.20640449 0.04460918 -0.15115106 -0.20124403 -0.03932828 0.0101277605 -0.12501508 0.13637182 0.041910525 0.011614665
structsockaddrin -0.049958378 0.104665354 0.07292898 0.07633228 -0.14063193 0.06167082 -0.14506797 -0.063204534 0.03182237 -0.17930882 -0.14129667 0.087986104 0.120955974 0.27253768 0.05857498 -0.035363656 0.0953745 0.059314042 0.26353562 -0.07085156 0.07521582 -0.12949261 0.1582344 0.012547123 -0.058024697 0.10513645 -0.14352 -0.20056559 0.015112996 0.16760026 0.08634418 0.05399315 0.13356674 0.040483207 0.084423095 -0.04462874 0.15902314 0.042233545 0.21008562 -0.102302 0.18859367 0.09296975 -0.121105306 -0.009516948 -0.03821377 0.018469214 -0.06898292 0.13510618 0.047977574 -0.053250123 0.03157867 -0.05749469 -0.23322815 0.20191388 -0.10032993 0.07537794 -0.02812781 0.16646533 -0.21405761 0.13679801 0.07524903 0.052150864 0.0829745 -0.0013543827 -0.06083231 0.1664226 -0.027317295 -0.016826913 -0.18423803 -0.23023191 -0.074704275 0.061618805 0.0284982 -0.0279397 -0.051467694 0.058944706 -0.14023584 -5.722372e-05 -0.070445776 -0.09532804 0.11778535 0.17926335 0.104096524 0.13436376 -0.20833604 0.074442856 0.012450573 0.14617655 0.11091211 0.07764585 -0.07540954 0.05857447 0.09372031 -0.101387024 0.17757536 -0.17093909 0.13199085 0.112912774 0.19640175 0.02500637
1 0.09448521 -0.004699974 0.0071175112 0.16415486 -0.103862315 0.21801095 0.037757166 0.078078024 -0.1859394 -0.09858223 -0.110731184 -0.10567922 0.07541404 0.07589219 0.16333815 -0.05755748 0.058405157 0.054336976 -0.00020207302 -0.00582775 0.12407026 0.044343133 -0.027710184 0.101152495 0.06209214 -0.0721675 0.034565963 -0.12544844 -0.024656685 -0.10194178 0.15326358 -0.050294373 0.05719733 0.17070805 -0.05619623 0.026044011 0.11526776 -0.025883423 0.16132417 0.021644108 0.2137366 -0.031479035 0.07521938 0.13893676 -0.07700242 0.1456233 0.060884535 -0.11517436 -0.044915993 0.011634473 -0.113198705 -0.10414942 0.025995161 0.10007663 -0.020363467 -0.13623606 0.0026341819 0.051225837 -0.031576015 0.21069187 0.06727935 -0.059026696 0.013774476 0.106590815 -0.06299164 0.16965114 -0.09397498 -0.03617906 -0.09473696 -0.014836184 -0.13352127 -0.1231195 -0.06455977 0.10487133 0.15412338 -0.11310993 -0.038500637 0.010497042 -0.007526995 -0.038164914 -0.13944204 0.21180204 0.046492472 0.18458588 0.037766762 -0.12039099 -0.035890788 0.043494374 -0.0139274215 0.0031162507 -0.08001119 0.2049482 -0.15587482 0.038793445 0.0014067253 -0.027695477 -0.11403248 0.07454114 0.15797628 -0.12275752
break -0.21337765 -0.08005128 -0.01202685 0.0021518474 -0.10122764 0.013691634 -0.113143004 -0.041604504 -0.20745713 -0.10936514 0.16545774 -0.07291675 0.20375784 0.10189225 0.15733409 -0.05398581 0.13544598 0.17028035 0.10120946 -0.098245054 -0.0060426975 -0.012318783 0.07159493 0.11389313 0.015966391 -0.06598589 -0.085367635 0.015559145 -0.113867216 -0.103879385 0.032943103 0.12753649 -0.085696034 0.15517354 0.1046267 -0.18804637 0.1691701 0.022230944 0.117195636 -0.01215879 0.04519043 -0.027411386 0.08045591 -0.07321831 0.09062058 -0.06627743 0.0711886 -0.1362289 0.044968657 -0.158582 -0.11443512 -0.038021833 -0.032136694 0.16846494 0.02634149 -0.04796195 0.17170502 -0.13182211 -0.16055204 -0.09921191 -0.20008302 0.108370736 -0.12943144 0.021381691 0.09187321 0.1294088 0.15980989 0.12490983 -0.05170602 -0.1787011 -0.15912372 -0.079698555 0.163626 -0.08517694 -0.0964651 0.090710185 0.023157747 -0.08317305 -0.063063405 0.01253061 0.0749044 -0.09312614 -0.10364646 0.1657673 -0.15682471 0.16467823 0.070312835 -0.0103225345 -0.064561516 -0.14715454 0.07969741 0.061749782 -0.08042239 0.13304348 -0.20515783 -0.020999467 -0.04758157 0.1780581 0.02957815 0.1634768
void 0.23273894 -0.1164407 0.25428703 0.23992684 -0.1505833 -0.17697074 0.023838634 -0.14395532 -0.07834318 -0.012892859 -0.13854179 0.24255857 -0.123885706 0.035257615 -0.044976834 0.036582947 0.21701743 -0.011541102 -0.12837288 0.0004952843 0.16137506 0.017969502 0.04052181 0.20028058 -0.20080328 -0.1832168 0.06838118 -0.06460252 0.061125137 -0.08650285 -0.12739438 -0.08492661 0.21834049 -0.12502614 -0.01892119 0.2115672 0.1631819 0.111717 0.08311238 -0.2698437 -0.17104603 0.07878947 -0.2989094 -0.11561982 -0.23732892 0.29679435 -0.09769903 -0.105563596 0.16344355 0.13997284 0.17098045 0.14229517 0.21616565 0.036919978 -0.007093665 -0.031484805 -0.09465936 -0.03184503 0.026440116 -0.23017508 0.15982385 -0.11964387 0.22609034 0.004025738 0.01402042 -0.23057084 -0.13170643 -0.15027532 -0.081117995 -0.007663104 0.04605803 -0.08947244 -0.14641277 0.015402627 0.08649388 0.19342217 -0.01607289 0.10679163 0.0969663 0.09311678 -0.28777185 -0.24300885 -0.06673892 -0.11032688 -0.016345656 -0.20415467 -0.026650125 0.011112096 0.100493915 0.06634975 -0.1242602 -0.19373171 0.06680612 0.035711326 0.03930819 0.2233152 -0.050268564 0.23151705 -0.2500246 0.08314945
inputbuffer -0.017568003 0.079452164 -0.12976985 0.029712409 -0.022332862 -0.14916888 0.07292186 -0.056226388 0.16538496 -0.20244406 -0.120316505 -0.03819243 0.07908614 -0.017893232 -0.026541635 0.20629753 0.06463645 0.13694206 0.08746069 -0.056688737 0.14249548 -0.16093566 -0.12833744 -0.091611035 -0.06289083 -0.052981798 -0.18047315 0.1973031 -0.10314992 -0.06276045 -0.094543144 0.0699932 -0.18409672 -0.16848513 0.21250811 0.08153957 0.11656193 -0.12051002 -0.04731995 0.083020024 0.08000218 -0.037888862 0.01392628 0.116941884 -0.08040864 0.1404028 0.14000027 0.023229823 0.051100254 -0.04805744 -0.23358624 0.17609125 0.13173388 -0.011304836 0.22267054 -0.14755088 -0.22357848 0.0802761 -0.22921136 0.20971376 -0.17763098 0.058981232 -0.1449874 0.048806857 0.17051752 0.13287507 -0.053947717 -0.08519427 -0.08978375 -0.1959882 -0.0053790477 -0.105339505 -0.06412346 0.06272238 0.09058258 0.0052415496 -0.15532179 -0.14764981 0.03205427 -0.0754287 0.09631219 -0.029621802 0.15041414 -0.09987964 -0.27108806 0.06367591 -0.104693554 0.01255981 0.020233732 0.106754325 0.02253441 0.031134507 -0.10506671 -0.11662059 -0.14491707 -0.005422588 0.1064752 -0.0881875 0.029190289 0.21122274
charchararraysize -0.20836365 -0.093416035 -0.25958264 -0.0562677 0.21370567 -0.00437573 0.22823858 -0.0074481675 -0.120497294 -0.21874788 0.190818 0.025221808 0.114404514 0.08725921 0.031237349 0.20970777 -0.0517562 -0.079637684 -0.044096913 -0.13465911 0.112759575 -0.021524495 -0.2185895 -0.18123788 -0.062664755 0.20929028 -0.17339383 0.015047107 0.10333102 -0.12940355 -0.104444355 -0.16453499 -0.19473414 -0.111097395 0.24546702 0.14675264 0.17404367 0.06365165 0.15996423 -0.12148408 0.094925195 -0.04243013 -0.0951728 0.024098318 -0.15484343 -0.2626164 0.16117492 -0.12265094 -0.13048907 -0.17342216 -0.051773705 0.12403559 -0.10590614 -0.106929354 0.14049298 0.19357824 -0.045511615 0.20231566 -0.2844705 -0.020035228 -0.16009523 0.047333695 -0.2103702 0.15193734 0.07167576 0.07942165 -0.12145499 0.0077349907 -0.16972828 0.07846705 0.013939607 -0.05719581 -0.06011159 0.005030584 -0.06445407 0.14607975 -0.026165148 0.0260059 0.12627938 0.10859654 0.042609595 0.22783339 -0.049156163 0.19664405 -0.3116098 0.03041463 0.050230313 -0.13909224 0.16031788 0.012057721 -0.15745571 0.0031659026 -0.13883992 -0.116122514 -0.17099948 -0.19418104 -0.11341501 -0.011289783 -0.26003504 -0.03854457
printintline -0.15227363 -0.11883776 -0.06452257 0.066296294 -0.1301782 0.14859006 0.18803507 -0.022020377 -0.040043257 -0.030507319 0.18269819 -0.13636623 -0.1326017 -0.03865745 -0.09002696 0.1385113 0.06647488 -0.105443686 -0.006396694 -0.07498924 -0.083029546 0.12110366 0.067776464 0.053456757 0.052499417 -0.12561584 -0.07216442 0.07128063 0.06464881 0.08597038 0.052380376 -0.017886307 -0.14211933 -0.050797995 0.12200699 0.08184868 -0.008872491 0.016379582 0.019405484 -0.09246119 -0.07131118 0.14858145 0.07975817 0.19504356 0.17199622 -0.02744585 0.13868667 -0.14738348 0.055743493 0.11755715 0.06294655 0.13932995 0.07927451 0.065096624 0.07987957 0.015751233 -0.11786068 0.17584077 -0.1309582 0.19319895 -0.17015025 0.18803447 -0.12541309 -0.06869522 -0.04452798 -0.010023809 -0.102995306 -0.09616711 -0.1879947 0.10310971 0.052184682 -0.17204656 -0.1381529 0.052785207 0.058609392 0.050209027 -0.027181111 -0.22591119 0.030859016 0.032814886 0.053788416 0.10079853 0.16745071 -0.06007627 -0.119791396 0.14149353 -0.10768356 -0.15323064 0.10298488 -0.10852978 -0.06887187 0.14212066 -0.07765091 -0.079721674 -0.061927766 -0.06127387 -0.16430695 0.18386269 -0.12699257 -0.1387421
recvresult -0.093541704 0.31652603 -0.16154087 -0.0040816977 -0.080029756 -0.337395 0.12548323 0.14117761 0.054752093 -0.12635984 -0.21244825 0.088640794 -0.0033694515 -0.12481899 0.058607336 -0.31028503 0.36967638 0.029209234 -0.2145722 -0.09496768 -0.09676993 -0.019769149 0.033703484 0.11781494 -0.07943928 -0.1185719 -0.00967446 0.12588342 -0.13359436 0.023308227 0.0048053088 -0.0199415 0.013445657 0.10120479 0.17595014 -0.3072396 -0.21318902 -0.19446447 -0.14217304 0.067919955 -0.09387032 0.14704403 0.23267685 0.068957455 -0.35867864 0.034925018 0.33455005 -0.17638013 -0.2850774 0.007952875 -0.2120672 -0.18614174 -0.23765397 0.17345986 0.33587387 -0.28765595 0.11450732 -0.30195156 0.17367187 -0.23388164 -0.2064864 -0.18304406 -0.08794209 0.063689455 0.18824545 0.0023093743 0.15076487 -0.084903404 0.17244571 0.2506746 0.013781997 0.17610921 0.11270687 0.0911438 -0.017633626 0.32462484 0.23081385 0.07521664 -0.30085224 0.00034669793 0.033298265 0.19687712 0.2966618 0.16101366 -0.037601445 -0.07204539 0.18059555 0.26612517 0.24813351 0.3003085 -0.039433014 -0.21198073 0.13429572 -0.06780361 -0.11810275 -0.09160121 0.14085558 -0.34931383 0.06170841 -0.043002322
listensocket -0.073841706 0.081430145 0.037392102 0.08553842 0.043869566 -0.18484986 -0.0018800027 -0.033499952 -0.033740737 -0.1975816 0.04458675 -0.0679224 0.24571325 -0.061215885 0.18643835 -0.032833733 0.33910343 0.20062748 0.002819674 -0.0030214167 -0.095338106 0.1872266 0.22815846 -0.15534583 -0.17071134 -0.15471135 0.016678734 0.19323024 -0.14642283 0.15654211 0.17996848 0.1804705 0.040711213 -0.068623215 0.11315033 -0.22353591 -0.089679144 -0.104579106 0.15703309 0.007226796 0.14469017 -0.060306262 0.0023087305 0.026229378 -0.289585 0.11569616 0.028307855 0.119036034 -0.036323722 0.034876324 -0.20299064 -0.11470108 -0.1207348 -0.026322536 -0.044320162 -0.12970918 -0.026596528 0.0751356 -0.165383 0.16833797 -0.2544641 0.08309822 0.032188643 -0.06540443 -0.019654617 -0.06793702 -0.042969666 -0.05968587 0.14166713 -0.06521603 0.02238239 0.25366405 -0.12437453 0.030990979 -0.07083538 0.17183998 0.023745071 -0.14054635 -0.23044235 0.07153908 0.017300565 0.22515786 0.06981748 0.015437375 -0.13270482 0.051141266 -0.100875445 0.21779923 0.21244633 0.13258792 -0.13867949 -0.014505595 0.1404496 0.10066851 -0.15105756 -0.20665377 0.117867276 -0.029584406 -0.0033005867 -0.04222896
printline -0.023636702 0.14164968 -0.25338316 -0.08344608 0.25434276 0.22523955 -0.044568703 0.052071735 -0.15682143 -0.121028446 0.13625431 -0.10086307 0.23117304 -0.28538483 0.14654851 0.14046021 -0.23779087 -0.108773604 -0.17873639 0.0905757 -0.23288637 -0.061038077 0.15191215 -0.12792851 -0.0013042941 0.010882767 -0.03641185 -0.0051903203 -0.12819426 0.243194 0.11419758 0.29801226 -0.04572641 0.0713518 0.15402082 -0.105396666 0.24498849 -0.01752648 -0.17000751 0.24851002 -0.11238728 0.14588246 0.05692054 0.1370893 0.12463361 -0.089264974 0.13190223 -0.085034445 -0.09406832 -0.24416631 -0.04998441 0.09677933 -0.11213417 -0.062117092 -0.08183753 -0.025502859 0.102267705 -0.18318465 0.25845778 -0.24518794 -0.20000064 -0.14609995 -0.20728411 0.27885717 0.07857917 0.07970634 0.04766061 -0.08751841 0.13701764 -0.26387528 -0.23032235 -0.24974975 -0.019777868 -0.07155147 0.00297126 -0.007394814 0.15894848 0.055447374 -0.05989305 0.11951056 0.058120888 -0.005320798 0.08217509 -0.16766058 0.14249514 0.13995501 -0.23416409 0.18009797 0.04220789 -0.04093754 -0.12662543 -0.046829827 -0.12952623 -0.23986618 -0.28783104 0.058702733 -0.04403453 0.023067959 0.1340051 0.039411258
5 0.09744177 0.07014428 -0.17021185 0.12903143 0.16999303 0.078853406 -0.035302725 0.110659644 -0.110527 -0.06196197 0.16828132 -0.014008776 0.19552137 -0.20021936 0.16063638 0.00944524 -0.096215546 0.009828331 0.21446754 -0.17176235 -0.00096030295 0.010355796 0.10899523 -0.20684086 -0.09142127 -0.02208082 -0.07398685 0.0863756 -0.061584663 0.053694237 -0.14320448 0.07067219 0.041270167 0.14859077 -0.09826483 -0.18202187 0.07045477 0.08896839 -0.06131209 0.19361764 0.065777235 0.11731941 -0.10235438 0.19586933 0.03292622 0.118919656 -0.114088506 -0.09023198 -0.020005684 -0.15208638 -0.022508178 -0.11733351 -0.032726914 -0.05307852 -0.0115015665 -0.016644351 0.09908249 0.19769277 -0.023468409 -0.07136493 -0.18216701 0.20239824 0.077811316 -0.048900504 0.16267759 -0.07101699 0.062876 -0.066037126 -0.18053576 -0.05712906 -0.13452008 0.117245756 0.1094786 0.01341919 -0.015241221 0.031438336 -0.05794554 0.16039442 0.011572107 0.047583856 -0.07007494 0.21929155 -0.10466415 0.19906047 -0.055155467 -0.003919169 0.08771787 -0.020585041 -0.026116058 -0.13026734 -0.100638725 0.1865319 -0.058366895 0.024082884 0.09989762 -0.102736905 -0.052793518 -0.057920575 0.15947887 -0.10406187
invalidsocket -0.07274299 0.15805411 -0.19835232 0.13902508 0.047073614 -0.019770175 -0.19387163 0.1924482 0.02299284 -0.1420455 -0.28135893 0.10182783 0.09160515 -0.052731823 -0.06877128 -0.037496578 0.31299752 -0.062242184 0.07685333 0.0032445583 0.05810799 0.14155892 0.18623447 0.13428259 -0.12337111 0.11975137 -0.15969583 0.13158983 0.06951105 0.08952875 0.051306117 0.0016376831 0.051824223 0.08313572 0.015122767 -0.11189909 -0.17573252 0.04261432 0.18177904 0.049480546 0.05179612 -0.1044768 0.14476776 -0.124741316 -0.059927396 0.19098452 0.2779008 -0.0012319989 -0.03637022 -0.09507669 0.12221331 -0.10516705 -0.2570068 0.0661129 0.22460921 -0.14875098 -0.052876174 -0.09882548 0.0039685494 -0.15480922 -0.23470244 -0.05228027 -0.08452156 -0.17210613 0.055097904 0.12543227 0.10634772 -0.21657029 -0.14417233 -0.0069583748 -0.032232072 -0.04263227 0.15353458 -0.028388165 -0.06890812 0.040253 0.07225566 0.12407792 -0.053176146 0.07691912 -0.09055916 0.25595152 0.22406499 0.3034097 0.036658175 -0.12407972 -0.117973976 0.04115189 0.08013799 -0.15153106 -0.01746867 -0.13356264 -0.03149233 -0.022611482 -0.008732568 -0.14433962 0.080407396 0.04567539 0.08252501 0.108227946
wsadata -0.047242295 0.027079826 0.0528582 0.017857699 0.053402863 0.05740965 -0.24973294 -0.001546929 -0.20651244 -0.22304949 -0.16083905 -0.13802671 -0.027996678 0.004071512 0.043122333 -0.06867321 0.15130839 0.17170715 0.27514938 -0.19683018 0.038113665 0.15007135 -0.13582943 0.09515261 0.24723257 0.10937512 -0.01892645 -0.17802142 0.05931146 0.03561504 0.11040149 -0.120462775 -0.15822491 -0.0035211092 -0.037692197 0.0060188454 -0.017017499 0.06784015 0.021890871 -0.008393417 -0.039401006 -0.059237506 0.065891854 -0.03390443 -0.15284705 0.07527527 0.10587173 -0.021172471 -0.016439533 -0.20845017 0.060480636 0.059728965 -0.171925 0.20511247 -0.16064139 0.1282067 0.20843944 0.093394816 -0.26498187 0.015760468 -0.21273275 0.11412435 0.14228474 0.052941356 0.099097244 0.23954041 0.11426822 -0.14736938 -0.019999374 0.04777129 0.13124947 0.14730898 0.06279523 0.019766789 -0.03674064 0.0440276 -0.04577535 -0.151448 0.15051432 -0.118125185 -0.16863912 0.19262467 -0.07787775 0.02602796 -0.012713511 0.00506153 -0.03761603 -0.00762124 -0.07873046 -0.06476173 0.052642263 0.124700755 -0.1063477 -0.13312824 -0.037104145 -0.084177114 -0.12839694 0.09598286 -0.05687936 0.24043941
wsadatainit -0.028923236 0.28168547 -0.18639712 0.041207373 0.02719547 -0.039186314 0.16409713 -0.08874199 -0.25321397 0.0022044438 -0.030863617 -0.012703165 0.26958326 0.10983833 0.08098877 -0.16876687 0.32199436 0.0658043 -0.026398258 -0.15173294 -0.058461215 0.045715414 0.13441195 -0.120439075 0.026426947 -0.18580563 -0.20353943 0.18879564 -0.13631546 -0.10054473 0.04218073 0.21178962 -0.20599708 0.034251787 0.25070852 -0.2961126 -0.08457424 -0.112768546 -0.104581594 0.0075274645 -0.050673068 0.15237275 0.121758215 0.09267625 -0.35335442 -0.07167314 0.26187086 0.042553063 -0.28352982 -0.098226964 -0.06368707 -0.22721536 -0.01164644 0.25108784 0.015316885 0.02852873 0.0051027522 -0.16895579 0.015086639 -0.021426916 -0.16599177 -0.14786093 -0.18623611 -0.06531608 0.09886056 -0.028129926 0.15717462 -0.02957098 0.22106498 0.22601016 -0.15164776 0.2133019 0.026851917 -0.051051866 0.08181103 0.07900799 -0.102794 0.24299489 -0.21033275 -0.16761474 -0.077902324 0.20023422 0.25571537 0.03745836 -0.22468945 -0.09908086 0.043420695 0.21613167 0.12984763 0.026200159 -0.25518858 -0.2356935 0.001753295 0.095704764 -0.14986393 -0.16360532 -0.010037499 -0.16799085 0.055787012 -0.08829459
connectsocket -0.10852997 0.13100784 0.17009968 0.104813635 -0.04388195 -0.1256307 0.0139396805 0.13313332 -0.1951564 -0.14374472 -0.17607448 -1.1049415e-05 0.19279324 0.17932793 -0.09009475 0.029213859 0.17481983 -0.08100889 0.14105959 0.09002073 -0.11069298 0.11291229 -0.0032644232 0.15867601 0.21013698 0.098064065 -0.23675528 0.074655905 -0.12127339 -0.05047667 0.101609886 -0.029863281 -0.09897045 0.098667115 -0.04520447 -0.074949384 0.16591544 -0.06363393 -0.09432141 -0.14703858 0.20400392 0.100363165 -0.041087147 0.051603526 -0.2730418 0.06939871 0.09348599 -0.03218631 -0.13430703 0.101265796 -0.14078997 -0.011293167 -0.056445584 0.22312868 -0.08255461 -0.14245525 0.26509142 0.09066773 -0.15743732 -0.18011507 -0.14156787 0.08035424 0.11209785 -0.07842801 0.19299577 -0.058654703 0.011708921 -0.27169374 -0.024494372 -0.14427936 -0.02360616 0.17279936 -0.14061075 0.27262715 0.06562979 0.08906842 0.10966033 -0.051934175 0.03595127 -0.19414853 0.04096306 0.18989542 0.16819929 0.065996535 -0.052515797 -0.0461674 0.06992078 -0.0038846924 -0.106906906 0.12840204 -0.19412346 0.19933626 -0.10165117 0.02444929 -0.18026784 0.073986836 0.11415328 -0.06708137 0.005952933 -0.16479027
acceptsocket 0.02002771 0.03747242 -0.08138516 0.14268105 0.03166447 -0.14763978 -0.16872537 0.09033026 -0.18321717 -0.0025644936 -0.064532146 0.10226773 -0.040496048 0.11396012 0.02616851 -0.12409675 0.15860815 -0.085842684 -0.017341936 -0.14836052 0.1359711 -0.026049808 0.065337 -0.06743687 0.17390348 0.11987512 0.12526366 -0.07756818 -0.1995237 -0.13983256 0.015483113 -0.008165988 0.13090563 -0.17380802 0.034802437 -0.07788057 0.050629016 -0.14176275 0.21852526 0.121604025 -0.06756577 -0.0033113733 -0.11814359 0.059811372 -0.0005976623 0.06971195 0.26035225 0.036849454 -0.06131826 -0.042809904 0.16229145 -0.15895003 -0.13414128 0.2034746 0.12265367 -0.09912588 0.04199339 0.1807612 -0.017532011 -0.099033594 -0.14670241 -0.12717132 -0.19500689 -0.14289016 0.12998088 0.013597126 -0.06882422 0.007081832 -0.019405274 0.097210445 0.17245898 0.0725221 0.078851976 0.081885695 -0.11120509 0.20650706 0.075160325 -0.03983257 0.057737447 0.11563977 0.13456443 -0.08245919 0.12514363 -0.028222946 -0.083539866 0.18454048 -0.07035027 0.26956686 0.06353689 0.022671947 -0.048749816 0.036683872 -0.12756395 0.061712846 -0.020211251 0.0783852 0.04996845 -0.06248222 0.23193347 -0.030299934
staticvoid -0.18191338 0.2496505 -0.018572088 -0.2539655 0.056981914 0.25364828 0.1104536 0.29118714 -0.094557464 -0.08876582 0.18164161 -0.31331384 -0.009742991 -0.31531164 0.109818175 0.21750842 -0.33860937 -0.22311881 0.23649023 0.0887052 -0.2558291 0.32307944 0.29447314 -0.18123122 0.14342602 0.03363793 -0.20565188 -0.08912116 -0.3173517 0.32598197 -0.13721338 0.11571629 -0.17977196 0.120505214 0.06889451 -0.14955091 -0.2176644 -0.081808046 -0.25522152 -0.023206182 0.2696268 0.11372559 0.3410752 0.18334971 0.19479047 -0.1995639 0.00017669225 0.082683675 0.03304474 -0.3176755 0.1817074 -0.072301894 -0.13565202 0.25143674 0.06763886 0.023466645 0.34939924 -0.08022123 0.0036909431 0.30010745 0.06689327 -0.11135101 -0.15874201 0.031276416 -0.058003653 0.28499803 0.3247935 0.1973267 0.027999198 -0.14505257 -0.28672037 -0.0076882234 0.3243941 -0.3469927 0.03514816 -0.10278678 0.2987616 -0.31985676 0.038426682 -0.33716983 0.24861515 0.29186496 0.2179947 -0.15865928 0.21223663 0.25225332 -0.30284488 0.268154 0.2628569 0.03986912 -0.19385548 -0.06664457 -0.26545578 -0.18854196 -0.040223684 -0.13155209 0.2416478 0.026205083 0.22787686 -0.05032937
dataptr -0.14650244 0.014433605 0.11989705 -0.07392792 0.13690566 0.040744677 0.19067384 0.012995942 -0.16564737 0.02139755 0.2146742 -0.19582412 0.18048899 -0.13603549 0.061182722 -0.12964112 0.16970137 0.1698503 -0.17475155 -0.023857344 -0.00280128 -0.025417348 0.073148295 0.020754544 0.02404909 -0.06681993 -0.003606116 0.0062290565 -0.13934268 0.08439029 -0.18612422 -0.021904796 0.09632398 0.15374918 -0.08268925 0.07385602 -0.120738186 -0.0022458236 -0.20118453 -0.04575432 -0.10503418 0.11780347 0.17593999 0.11646076 0.13821883 -0.033266693 -0.12199397 -0.1858185 0.02495202 -0.073876604 -0.041757952 0.013156887 0.03555501 -0.009041974 0.019793777 -0.21785577 -0.2052688 0.058133595 0.018394314 -0.18174072 -0.122256756 0.054265488 -0.113885224 -0.035332453 0.15891804 -0.013279165 -0.017129071 0.15114567 0.007731378 -0.10519213 -0.21397819 -0.05334034 0.06521408 0.08158371 -0.055533547 0.17942205 0.022016255 -0.07884209 -0.09472279 0.023393227 -0.02229978 0.100564435 -0.03124593 -0.08041729 -0.12529731 -0.08218043 -0.051340442 -0.04905607 -0.008763361 -0.059375294 -0.024194185 -0.072240114 0.20052584 0.13932161 -0.22522706 -0.03894726 -0.0133786 -0.037474662 0.12108451 0.028501848
socketerror -0.23840201 -0.036104307 0.07416366 -0.023284161 -0.103049956 -0.014249063 -0.14793387 0.094287336 0.050971765 -0.057891555 0.033292964 0.024797238 -0.006264957 -0.07518401 0.21140997 -0.18636875 0.35931185 0.2395438 -0.09060629 -0.16660817 -0.10418539 -0.12176035 0.16406786 -0.011564425 -0.011559824 -0.17963742 -0.25087097 0.28955516 -0.07844338 -0.053658437 0.21827675 0.17153087 -0.16017398 -0.025221832 0.339474 -0.21916658 -0.048363935 -0.031075336 -0.016887937 0.02676886 0.113002844 0.2670453 0.06715674 -0.11381879 -0.4025512 -0.12672204 0.30863103 -0.02610228 -0.32583508 -0.082689136 -0.067864954 -0.07957118 -0.26926726 0.011179827 0.2352358 -0.064770006 0.12175281 -0.27999863 -0.10328473 -0.0038128523 -0.111177705 -0.052577887 -0.17564389 0.10339533 0.20598385 -0.09422101 0.19385634 -0.20480992 0.21726319 0.14109482 0.13753623 0.1981481 0.1411443 -0.04745133 0.0858722 0.34617436 -0.009888622 0.21708167 -0.27363864 -0.20955934 0.15208623 0.17496821 0.066284254 0.05961544 -0.34953105 -0.16820839 0.01338963 0.31329 -0.07072582 0.0029739784 -0.044804163 -0.25073612 0.13902049 0.0073756212 0.04270346 -0.030438919 0.17263778 -0.11321592 0.17227265 -0.140395
stdin -0.17883424 -0.039014086 -0.032642946 0.11203595 -0.11169631 0.010096042 0.1369016 -0.11767714 -0.1554405 -0.15220448 0.15584211 -0.108794846 -0.0078629 0.17606059 0.036390435 0.12607522 -0.12871903 -0.026079442 0.009352846 -0.040947743 -0.023092777 -0.17293885 -0.15694307 0.180881 0.09140889 -0.12631834 0.15284543 -0.008698543 -0.15287392 -0.21490918 0.15881582 0.0054811477 0.009029748 -0.06249487 0.16658452 -0.123057805 -0.011257184 0.14942019 -0.0011117643 0.0752884 -0.10368105 0.04756775 -0.1351598 -0.14129013 -0.20789878 -0.12253654 0.122903675 0.18275522 -0.10667399 0.061188594 -0.15974022 -0.18521725 -0.21648449 0.16746694 0.14889832 -0.15664198 -0.10107929 0.007463968 -0.10543844 0.19778515 -0.17511937 -0.0898082 -0.00033472473 -0.06677718 0.18830751 -0.08895042 0.061119974 -0.1255746 0.07581066 -0.12721771 0.08728036 -0.031554684 0.05084308 0.008765754 0.04109978 -0.03743845 -0.06850421 -0.14374973 0.14033504 -0.13151717 0.11269395 -0.08608804 0.08669339 0.10484071 0.023274703 -0.02035462 -0.119849436 -0.028960133 0.022188837 -0.16270205 -0.10452651 -0.058844227 0.024890065 0.11911806 0.025490133 -0.08897743 -0.072813205 0.24518107 -0.028985243 0.16173044
rand 0.025825894 -0.025649397 -0.21907634 0.19296834 -0.057724398 -0.08395461 0.006761494 0.20060785 0.14903225 0.069451 -0.19853419 -0.027826158 -0.13668844 -0.13193502 0.05706004 -0.27541476 0.13624683 0.084589064 0.15733282 0.21469244 -0.13165957 0.12610203 0.25454202 0.20428206 -0.17553486 0.13203561 -0.19866958 0.19009838 -0.16329534 -0.15357053 -0.08557274 -0.17332655 0.07248152 0.079335995 0.0885328 -0.15017013 -0.26349673 -0.15867616 0.13525134 -0.052437153 0.035986297 0.19213125 -0.072122954 -0.013956929 -0.07160957 0.0191951 -0.018302415 0.09943837 0.012747726 -0.019630084 -0.10390505 -0.23809278 0.20568687 -0.036821052 0.0687728 -0.19001986 -0.05903058 0.047406524 0.061007407 0.276385 0.07874775 -0.13803788 0.2634694 0.10658985 0.09521871 -0.25559023 -0.16587123 0.09382181 -0.14376074 0.09070136 -0.049658902 -0.09554254 0.020944782 0.062924996 -0.05296004 0.07717465 -0.13060267 -0.095241174 0.19617185 0.028256962 0.27576324 0.25173518 -0.13179877 0.08963988 -0.25965077 -0.1939578 -0.12346915 0.18369019 0.14839804 -0.02447384 0.09976692 0.069236234 0.25140488 -0.17558396 0.07363377 0.054108467 0.25117177 0.10728833 -0.04686261 -0.17450695
afinet -0.18023378 0.1051564 -0.16118127 0.024345888 -0.024787694 0.0714886 -0.0712579 -0.11121383 -0.18409352 -0.11888725 -0.17638522 -0.06823162 -0.059921667 -0.062433865 -0.11148785 -0.1475262 0.1612802 -0.10322857 0.10090025 0.06015541 0.14014663 0.050537832 -0.03341129 0.033965345 0.19734187 -0.15653777 -0.1996916 0.12075919 0.08823461 0.15622413 -0.092888065 0.049497146 -0.03991455 0.15646836 0.18678172 -0.19167168 0.0060349205 -0.11239756 0.1389465 0.04099045 -0.0112578 -0.111199714 -0.019381236 0.17878592 0.046507835 0.16641437 0.11750189 -0.08813016 -0.05704306 -0.20003405 0.037831184 0.06170065 -0.14801654 0.08534326 0.18658988 -0.08162904 0.12848765 -0.1493287 -0.12357579 -0.060222894 -0.1433684 0.08827331 0.028254963 -0.041872926 -0.018178895 0.004785641 0.09691532 0.04903719 0.09096214 -0.00766731 -0.03605126 -0.10539497 -0.1047976 0.10219609 0.10416755 0.041865837 0.19516015 0.098421864 -0.15894915 -0.07246002 0.07339206 -0.07389263 -0.00035593938 0.10656031 -0.08113522 0.103205 -0.024485292 0.14297165 0.13420273 0.031630423 -0.080395 0.17547476 -0.11721084 0.03288553 -0.0617798 -0.020353366 0.098492876 0.19383189 0.17623456 -0.1361797
fscanf 0.13009885 -0.0038991058 -0.041707106 0.11269932 0.015143434 -0.05893239 -0.0036808015 -0.11350042 -0.18647365 -0.12767988 0.11624816 -0.030484265 -0.029810343 -0.0049545886 0.09468201 0.08158244 -0.07824731 -0.1432396 0.12514976 -0.21701561 0.039744947 0.029938579 0.04041328 -0.035430074 0.074461475 -0.1257668 0.01075911 -0.06584958 0.17572705 -0.09960875 -0.04993779 -0.029468598 0.09827233 -0.098467365 0.116151005 -0.036517218 -0.07266786 -0.12761585 -0.028655212 0.15550636 -0.08815134 -0.075642616 -0.05787789 0.03947098 -0.10225934 -0.0978385 0.0010738962 0.13365619 -0.078045286 -0.12379316 0.13027191 -0.029352227 -0.19140582 -0.01737117 -0.025567116 0.13083619 -0.09658479 -0.023257922 -0.16979249 -0.119564235 -0.13243134 -0.020694578 -0.04814986 -0.025734412 0.15495627 0.23599368 0.1902436 -0.11534639 0.08664285 -0.17618452 0.017610127 -0.21439546 -0.12545124 -0.15713474 -0.06447071 0.019506851 -0.050660998 0.09626336 0.15757422 0.081313126 0.044395223 0.117816344 0.04722633 0.1450398 0.10708754 0.08129286 0.044788316 -0.13341373 0.081006594 -0.20459914 0.055901103 0.010275479 -0.020033283 -0.099056564 0.12417438 -0.08506598 0.11456074 0.017821735 -0.0035842885 0.12106344
l 0.10151001 0.07247913 0.040314216 -0.016477432 0.19819449 -0.108065195 -0.04550417 -0.11477228 -0.004755014 0.022668485 -0.022980599 0.010214645 0.016909014 -0.14917253 0.22507225 0.13230313 -0.0071102963 -0.08034705 0.14571361 -0.1583146 0.14657241 -0.15854122 0.19745569 0.17137426 0.0258681 -0.17849109 0.028621469 -0.0027053896 0.06382818 0.09111192 -0.18445581 -0.21847624 -0.15918647 0.057911433 0.16829781 0.068731375 0.021148963 -0.06460307 0.0848922 0.23176196 -0.100821584 0.023211498 -0.04056881 0.17279904 0.029270476 -0.107629724 0.058471497 -0.06754868 -0.019983178 -0.21494432 0.054016538 -0.10909742 -0.168089 0.20659411 -0.1703225 -0.1456805 -0.15422478 -0.1124629 0.0077936607 0.17012832 -0.1145153 -0.19988102 0.004042326 0.107564054 0.099596374 0.22919077 -0.22392927 0.17542547 -0.23982738 -0.073039256 -0.060316924 -0.17183892 -0.124123186 -0.17157516 0.092513464 -0.16171509 -0.07151497 -0.2090521 0.111009985 -0.17142788 0.1349913 0.19290893 0.03209288 -0.015613586 -0.054908484 0.046363547 0.14628708 0.088355124 0.13607678 -0.16100974 0.0026465598 0.034640536 0.19645362 -0.023922384 0.10373912 -0.13665134 0.120500304 0.10682787 0.009430467 -0.032044735
_ -0.19847853 0.0035129595 0.0011109355 0.098182306 0.13266522 -0.06302804 -0.13285609 0.12703408 -0.2092357 0.052035216 0.06432759 0.106105596 0.19664927 -0.03940096 -0.14343886 -0.20582199 -0.0010122418 0.18288133 0.1426983 -0.12801203 -0.10241813 0.03154169 0.036416512 0.05082957 0.00076700933 -0.1307232 0.01584472 -0.15886182 -0.13429129 0.15092553 0.06875765 0.010358229 -0.09323757 -0.10342041 -0.06677633 -0.03947619 -0.010494348 -0.083700545 0.214879 -0.04119127 -0.00012872912 -0.05302917 0.012339203 -0.09564229 -0.021327306 -0.032782625 0.09408901 0.120897435 -0.05768905 -0.15353459 -0.023764864 -0.1855027 0.05015503 -0.07787348 -0.11501999 -0.08953333 0.12178731 0.14321329 0.12521961 0.035486177 0.1048741 -0.025406232 -0.027396925 -0.016474465 -0.0806483 -0.24485874 0.007874218 0.08531112 -0.035212796 0.06926321 0.008933314 -0.0042352686 0.044522658 -0.05729412 0.112295106 -0.085074306 -0.09776176 -0.18859845 0.1494774 -0.08559039 0.20449613 0.050800323 0.06883541 0.18227571 -0.1720964 0.042435728 -0.030619362 -0.07800085 0.14159252 -0.12496041 -0.1475396 0.01959857 -0.08377756 -0.022232858 -0.11842985 -0.12431416 -0.11759423 -0.0005725629 0.19955559 -0.055196177
benignfixedstring 0.11759623 -0.044140592 0.06278141 -0.1515603 0.16949534 -0.014266101 -0.050841007 -0.11490682 0.10542622 0.051091697 0.11799106 0.042847157 -0.11344653 -0.116031624 0.16513963 0.0807959 -0.073284246 -0.020476883 0.039969534 -0.10686224 0.07172322 -0.12682042 -0.07797278 -0.14426646 -0.109056965 0.10551665 0.05164799 0.1022377 -0.09605937 0.07014546 -0.033131212 0.024044253 0.053461477 0.13704184 -0.0078816535 -0.19315642 0.08995987 -0.16386303 0.14235294 -0.10729016 0.022659305 0.10820484 0.037023474 0.03286143 -0.032038454 -0.16798459 0.114801936 0.1551311 0.024627257 -0.17704505 -0.122717075 -0.1773851 -0.08712071 0.16137286 0.11733013 -0.1576646 0.11083787 -0.07955744 0.07579395 -0.009262831 -0.18815221 0.15767664 -0.043862082 0.028339956 0.1954368 0.017357975 0.13812464 -0.1422763 -0.040836424 -0.039150734 -0.12473182 0.08616742 0.20756337 -0.13511576 0.14612482 -0.05322794 0.17192231 0.07169418 -0.11759361 -0.18768223 -0.08819229 -0.05513422 0.08169499 0.21140413 0.14746341 0.14346142 -0.19198292 0.17658736 0.054891706 -0.124256946 0.0850345 0.1198059 -0.16924398 -0.08516982 0.07882078 -0.068768315 -0.0673518 0.13965179 0.1396006 0.08985858
printlonglongline 0.099518314 -0.08502656 -0.20090035 -0.1623173 0.103201725 0.11498206 -0.035454243 -0.03972385 0.121030204 -0.112318076 0.14452711 0.03935926 -0.11041216 -0.12053024 -0.041971445 0.15013607 0.08566849 -0.058168996 -0.01963296 -0.05485507 -0.04188709 0.0333565 0.0047974032 0.11895699 0.06367893 -0.16541816 -0.17308429 -0.094908975 0.12688541 0.07566956 0.1415628 -0.027639275 0.13040006 -0.17373005 0.12845999 -0.108041205 0.03878803 0.029869914 0.18215224 0.192039 0.095932394 -0.033243213 -0.024776002 -0.08025522 8.1092294e-05 -0.18800643 -0.15366504 -0.1508824 -0.11004644 0.008815827 -0.062499978 0.18936874 -0.15231764 -0.0735194 -0.09419494 -0.003296762 -0.030114505 -0.04323638 -0.06694814 -0.021098526 -0.17370592 0.13560045 0.14999972 -0.15356605 0.0702484 0.09629522 -0.09263386 0.10633171 -0.060373873 -0.05800382 0.10852731 -0.07363279 0.18042016 0.10131006 0.13224325 -0.02752971 0.16752958 0.00025960107 0.06572631 0.028936442 -0.044648357 -0.08320921 -0.100398615 -0.12221332 0.05673467 0.17260087 -0.15505187 -0.029315941 -0.15677336 -0.05714597 0.0043708123 0.020363582 -0.08172849 -0.11779384 -0.039569236 -0.12814182 0.08869311 0.12724565 0.06188857 0.12220304
printhexcharline 0.13938402 0.118506216 0.121866606 0.121012256 0.055273812 0.048770517 0.12426324 -0.1088463 -0.09269221 0.030392483 -0.15551338 0.1643592 0.1349693 -0.026445782 -0.08262706 0.122949734 -0.2292312 -0.007534606 0.16612846 0.111994274 0.029107146 0.06551038 0.19714223 0.008073228 0.20439035 0.13883325 0.024133079 0.02672899 -0.08103762 -0.014099582 0.14636718 -0.038096953 -0.101054765 -0.15396877 -0.21922952 -0.08153883 0.1504553 0.10912443 0.07309234 0.00899745 0.19978836 -0.016029753 0.08414772 0.19761275 -0.15216728 0.17038347 0.014431915 0.12776825 -0.15872014 0.112858765 0.036216434 0.01598113 0.07319095 0.04014599 0.065535605 0.034535497 -0.099073716 0.0929495 0.049002502 -0.012564662 -0.16521357 -0.075584695 0.13560772 -0.13407178 0.07764145 -0.071937755 0.027658436 0.16563006 -0.072870925 0.08605812 0.027136613 0.076777846 0.02086683 -0.081343696 0.06627179 -0.1416357 0.096747346 -0.23433253 0.0012133454 0.07001726 -0.068429574 -0.06255332 0.06743235 0.062270038 -0.02491511 0.1773062 0.10742807 -0.1317924 -0.04479796 -0.010988581 0.092977986 -0.06825912 -0.20996656 0.048029892 0.13465212 0.06902814 -0.06608513 0.041840352 -0.00048922206 -0.1261771
goodbg -0.22530966 -0.18078128 -0.20074256 0.20752273 0.19916753 0.268475 -0.05352997 -0.1847133 0.1481475 0.11501736 0.1976795 0.03012764 0.11260002 0.14551324 -0.13702747 -0.100068904 -0.077592485 0.17188701 -0.17115176 -0.0763663 0.039844602 0.029056177 -0.050793227 0.16998494 0.02489449 -0.15516405 -0.06966044 -0.054756097 0.03164337 0.21090122 0.08991352 -0.09749222 -0.06763498 -0.14815482 0.043988112 -0.20828019 0.09311905 0.08309061 0.060162894 0.2242091 -0.008673919 -0.07814632 0.2043928 0.22108601 0.03175851 -0.10254648 -0.18945308 0.08387796 0.004440867 -0.20380872 -0.19655795 -0.21667165 0.22609551 -0.19715592 -0.048216935 0.16692853 -0.10903576 0.16315968 -0.18896076 0.09267003 -0.059719708 -0.21215421 0.2590048 0.050843913 -0.0855273 -0.23227839 -0.20133217 -0.11390209 -0.16415122 0.17116694 -0.11734885 0.17978539 -0.09796365 0.12359103 -0.057650167 0.041367706 -0.16651398 0.24513519 0.024422737 -0.12047248 0.16531557 -0.23247479 -0.012177526 -0.19290465 -0.23879093 -0.16885187 0.20545919 -0.14670011 0.19684307 -0.19539765 0.1379485 -0.17270103 0.21733858 0.115647085 -0.058233477 0.19389583 0.04822161 -0.107300825 -0.22725439 -0.118811734
nan -0.07987428 -0.11200151 -0.15995674 0.0778602 -0.09487171 -0.070847474 0.09471785 -0.05196028 0.016251277 0.0835773 0.12652504 0.0721301 0.051838886 -0.11764707 0.110703185 0.19245838 0.05701222 0.13682413 0.16023234 -0.104167 0.055836536 -0.057364494 -0.04465718 0.16609989 0.0719568 0.03619087 0.039604492 0.06417339 0.11303848 -0.08676132 -0.19029325 -0.07536779 -0.121093 0.010033599 -0.0005473764 -0.19162121 0.17638348 -0.08805554 0.1779286 0.07916645 0.023948606 0.052341703 -0.14024995 0.123727866 -0.19845763 0.09471521 -0.06496243 -0.020094728 -0.048673246 0.011050453 -0.16256395 -0.1130724 -0.17676131 -0.036222212 0.057199903 0.046008334 -0.17706582 0.20296447 -0.061274152 0.058289662 -0.21040373 0.13446274 -0.08313603 0.1288501 0.1344098 0.063959256 -0.08455912 0.046555955 -0.08105569 -0.19635363 0.08790585 0.0026813778 -0.08725772 0.024373945 -0.074002735 -0.031417806 -0.03288897 -0.007413106 -0.09600148 -0.024658874 -0.050230928 -0.011298641 0.03511831 0.1141946 -0.22311723 0.14198878 0.122090355 0.07467813 -0.07283194 0.0025183468 -0.1216338 0.115646906 0.14884597 -0.014657097 -0.09603673 -0.009468257 0.058076542 -0.049635325 -0.0136286 0.0430317
closesocket -0.13479175 -0.05566005 -0.05108118 -0.07232186 0.08299569 0.06495373 -0.08339484 0.0437282 -0.07519853 -0.13466582 -0.16146849 0.049729347 -0.03900921 -0.07327657 0.21242256 0.02814715 -0.0020513833 -0.12031433 -0.06109603 -0.1771529 -0.05316513 -0.16405892 0.026907695 0.19475015 0.19241561 -0.05901832 0.0994628 -0.06084225 0.02387274 0.061860677 0.08022976 -0.059331287 -0.054437872 -0.18415271 0.058589485 -0.069917776 0.020788131 0.098717414 0.21627526 0.12037797 -0.094944715 -0.20544815 -0.12707008 -0.022036336 -0.2387546 -0.12545015 -0.11921989 0.028817436 -0.050426 0.03579978 0.13183115 -0.21600163 -0.06306591 0.08437222 0.058522686 0.014145871 0.015659992 0.05184853 -0.04696494 0.19110206 -0.097619034 -0.08367116 0.13201523 -0.13396417 0.002726206 -0.030874548 0.06422155 -0.20946586 0.06858963 0.10584738 0.13953917 0.12024953 -0.09792206 -0.0031099613 -0.18429105 0.05528734 -0.042506974 -0.1913447 -0.028956344 0.08374484 0.10003427 -0.012655322 0.0012561041 0.012939013 -0.083783105 0.09863226 -0.012710363 0.12956178 0.033806674 -0.045861237 -0.12166051 0.097165294 -0.11241622 0.04238409 0.17391774 -0.073351234 0.1175518 0.1945723 0.14975284 -0.07949972
atoi 0.111859985 -0.11907977 -0.120825134 -0.017626353 0.011442062 -0.18244232 -0.060796008 -0.025425732 -0.12883241 0.03134703 -0.057855777 0.04725043 0.17295687 0.14810829 0.011089675 0.14673285 0.111828014 0.17142165 0.041378077 -0.112650976 -0.15172936 0.12797734 0.010861144 -0.17995605 0.09564535 0.0017212735 0.10063958 -0.02762133 -0.19150743 0.072519064 0.026267324 0.13277747 0.031591978 -0.14247157 0.01996311 -0.23883827 0.19441564 0.024680126 0.03697259 -0.011619196 -0.0059748925 0.011685804 -0.07383122 0.21554294 0.050058294 0.054118037 0.27830145 0.04646286 0.0767952 -0.016778389 0.0055125803 -0.03763568 -0.15579864 -0.09471449 0.08983937 0.07607411 -0.21889861 -0.07295457 -0.15056258 0.2598468 -0.017909253 0.09826145 -0.18778183 -0.04111045 0.17724496 -0.032455124 -0.14440356 0.016498426 0.060525786 -0.08266077 0.13929766 -0.20103854 0.027909761 0.11832205 -0.100369155 0.049106233 -0.14146115 -0.08454512 -0.0068128975 -0.16248806 -0.16002868 -0.081131235 0.0639365 0.20198911 -0.001583031 -0.10619222 -0.10816311 0.22943802 0.15657113 -0.05073454 0.063220076 0.13677046 0.055303838 -0.04935789 0.0027352462 -0.06944915 0.0920959 0.1346443 -0.17754439 0.24906853
chararraysize -0.11666038 0.028378192 -0.09377335 -0.015870204 -0.096590474 0.15157905 0.03740105 0.0052821073 -0.03825128 -0.21484788 -0.07969698 0.07599534 0.048220813 0.14800188 0.13167714 0.07950499 0.05089589 0.03524743 0.09840439 -0.11123088 0.14485067 -0.12332745 0.077989295 -0.041220386 0.062063724 0.16505648 -0.17411874 -0.09832002 0.14337307 0.007511594 0.08695387 -0.048162844 0.033312876 0.04478596 0.08287581 -0.12058848 -0.045631625 0.051794674 -0.11229372 0.17079099 0.02420048 0.17139907 -0.013385498 0.0066469633 -0.18784244 0.110857815 0.11512558 -0.054716527 -0.11182687 -0.20496902 0.07071036 -0.00083846226 -0.09229068 -0.0037803876 -0.07496258 -0.11715804 0.03686542 -0.056790948 -0.14563672 0.20840792 -0.19295745 0.0032147623 -0.17094697 0.007890116 0.115554996 -0.0756876 0.046667714 -0.11485068 0.1276649 -0.17516227 0.04768493 0.037744988 -0.080075204 -0.027415346 0.022680854 -0.12027216 -0.10271311 -0.07901408 0.046340406 0.12516809 0.049976792 0.18674593 0.10379686 0.18972464 -0.036639288 0.10116792 0.12679468 -0.03120162 0.14352924 0.125687 -0.06514538 0.093788 -0.16684216 0.04176176 0.016919734 -0.20351855 0.06941533 0.053924173 -0.10463686 0.06954724
funcptr -0.09066087 0.11283534 -0.09483742 -0.16738792 0.00081877306 0.08576563 -0.07068574 -0.004033379 -0.0038934443 -0.000735716 -0.040959552 -0.01899436 0.1698984 0.096635 0.075273834 -0.012851841 -0.0255582 0.036787834 -0.056548666 0.014758422 0.12158893 -0.11777685 -0.12641174 0.12924756 -0.10066045 0.16638409 -0.11022914 -0.04208607 0.08473891 -0.12792528 -0.16921517 -0.05600738 -0.18251096 -0.04252559 -0.14469144 0.016582398 0.122151144 0.11096082 0.13179931 0.10304655 0.024020966 0.115538746 0.13459913 0.14811902 -0.057503607 0.047267716 0.1392145 -0.0155574875 -0.013842288 0.03202067 -0.14289692 -0.040861513 -0.12466068 -0.011595962 0.03151025 0.051521137 -0.06309179 0.055670615 0.1372462 -0.008019043 -0.1947507 -0.096976735 -0.030727519 -0.08997686 0.10211916 0.21503417 0.017985268 0.06855912 -0.0682167 -0.0016512177 0.009584633 -0.16477768 0.040238842 -0.013006145 0.013339942 -0.037682123 0.1368105 -0.1077221 -0.028416034 0.12019787 0.027545514 0.21106453 0.001843787 -0.00693113 -0.09972644 0.15371707 0.12725896 0.04528513 0.029745761 0.04637149 -0.107222475 -0.05236136 0.08163829 0.059748884 0.11431663 -0.20750162 -0.06417275 0.20080087 0.124191694 0.14113672
intmin 0.119045585 0.05179711 0.03557042 -0.17348087 0.13560823 -0.04401101 -0.014141014 0.03357669 -0.09100795 -0.16426952 -0.0046967333 -0.15081076 0.11238988 0.16425446 0.057785586 -0.040735617 0.15072694 0.062100522 0.16758104 -0.18838596 -0.012058207 -0.08742112 -0.080826014 -0.11159859 0.045078833 0.0006391755 -0.120191075 0.024101444 0.19680816 0.0077916007 -0.16058776 -0.08967423 0.06847282 -0.0875876 0.074813515 -0.17237933 -0.16237232 -0.107884556 0.14303197 0.15329269 -0.057340115 -0.17760222 -0.17457919 -0.09485523 -0.15906377 0.024961373 -0.110820815 -0.022730129 -0.054318115 0.15791655 -0.085090876 0.08615314 -0.12909313 0.028134711 0.060776945 -0.11241493 -0.11319231 -0.020075379 -0.21551971 0.18274902 -0.26794535 0.10899788 0.17613757 0.10727538 0.007271757 0.23954971 -0.09977527 0.054755025 -0.17891984 -0.07266697 -0.075048685 0.11505012 -0.16200337 0.13556218 0.17806724 -0.03119933 0.0049745245 0.15389188 -0.058726005 -0.10027388 0.12756096 0.24463746 -0.16069056 -0.027075196 -0.029591298 0.038922835 0.096620895 0.047636997 -0.07850872 0.06780873 0.005741691 0.058391273 0.11997232 0.13603579 -0.124102876 -0.17992 -0.17764536 -0.039294697 -0.11133095 -0.0004221531
printunsignedline 0.064126566 0.088554256 -0.079518385 -0.06096436 -0.07865172 0.0045978157 0.1423642 0.068993635 -0.1802056 -0.13535966 0.14173457 -0.16283031 0.11042444 0.019728987 0.15256236 0.21286333 -0.18101852 -0.009752406 0.12973332 0.15941675 0.056247417 0.12744893 0.06657324 0.030488739 -0.14224276 0.12576564 0.018302945 -0.10223496 -0.09871678 0.07440577 -0.083448075 -0.17204976 0.14510582 -0.12441713 0.1900225 -0.10350727 0.012978903 0.12717636 -0.0686034 0.082884684 -0.02617226 -0.042600106 -0.10102351 0.17821926 0.01591785 -0.16337197 -0.016721232 0.1145899 0.109111845 -0.009546112 0.119058326 0.12585993 -0.13549155 0.032464437 -0.0013360812 -0.08796447 0.09218659 -0.092793524 0.14094114 -0.08207237 -0.20689404 0.12818386 0.09761196 -0.08139837 0.04642042 0.09510813 -0.077269 -0.029240191 0.002178459 -0.04500415 -0.15308487 -0.19714652 0.034182552 0.0072700265 -0.1390761 -0.13475968 0.09456775 0.03477924 -0.08282039 -0.09915439 -0.019214012 -0.028901003 -0.14950095 0.1779601 0.09897861 0.15179831 -0.20114979 0.10324174 -0.19663323 -0.0824049 0.046054076 -0.08220299 -0.0068100975 -0.028987445 -0.06519636 -0.17928143 0.03248507 -0.050388295 -0.006087452 0.09821967
goodgb 0.015262403 0.0135811465 -0.100388125 0.23152629 0.09205309 0.25089115 0.14296424 -0.13328817 0.077464096 -0.018282292 -0.03241514 0.058358405 -0.17680126 0.0901046 -0.077591605 4.4942833e-05 -0.1891033 0.09473761 -0.08985201 0.01264856 0.22571725 0.08266283 0.010363377 0.09335499 -0.17687938 -0.10601308 -0.22275114 -0.23980117 0.1781034 0.0660037 -0.11604256 -0.21174715 -0.13482827 -0.05521237 -0.024290558 0.13106105 -0.013628153 -0.004378193 0.20584394 0.069265924 0.021930452 -0.16884144 -0.013334848 0.14829083 0.11513929 0.15279791 -0.09606074 0.08731268 0.08075479 -0.17141193 0.06039875 -0.08376666 0.15061952 -0.019044645 -0.048922542 -0.05395657 0.19498108 0.14457192 -0.15586776 0.23893815 -0.09067852 -0.053345475 0.001493138 -0.17415644 0.02464687 0.091153525 0.0772252 -0.13392578 -0.07162254 0.18449932 0.038618963 0.2241915 -0.16209467 -0.06606162 -0.1729258 -0.06764152 -0.11727542 -0.054730337 -0.07130681 -0.03709741 0.07854643 -0.13436182 0.13105373 0.027877333 0.058006216 -0.11668383 -0.00012695257 -0.12393835 -0.13264988 0.034053236 0.23600513 -0.18615371 0.09444237 0.022342578 0.054366205 -0.009491348 0.19914937 0.018465117 -0.19514805 -0.06336226
mystruct -0.0853052 0.0039015068 -0.06365615 0.0980765 0.061891083 0.09124946 0.14261043 0.13110237 0.1647436 0.025601316 0.22987647 -0.08895888 0.0052393856 -0.014957724 -0.07117432 0.053170588 -0.0001816625 0.08387092 0.09420688 0.023798179 -0.07007278 -0.020471562 0.05246346 -0.08054235 -0.15229595 0.0016826913 0.045403752 -0.026133493 -0.12657726 -0.06498226 -0.053178135 -0.07457019 -0.12860514 -0.087740906 -0.12946564 0.08139762 -0.109938025 0.027183445 0.101628326 0.10337372 0.07806349 0.18264332 -0.00011197728 -0.07088576 -0.10744634 -0.10772959 0.032942336 0.07786643 0.06565988 -0.121142164 0.10953213 -0.143958 0.010796177 -0.08065049 0.23621292 -0.08025347 -0.18912558 -0.0272764 -0.012741617 0.06629137 0.15836354 -0.03332179 -0.12187383 -0.1429054 0.059997767 0.075664796 0.14159347 0.16957562 -0.091086894 -0.024234029 -0.0835736 0.12059637 -0.11886293 0.06540153 -0.012631265 -0.08599005 -0.000317246 -0.029286264 -0.1116919 -0.13439345 -0.17486927 -0.095390834 -0.08165809 -0.07266907 -0.1469319 0.077449 -0.044106226 0.07702551 -0.055356003 0.14384939 0.084739946 -0.13599923 0.19266145 0.18068664 -0.15156338 -0.040847365 -0.019151455 -0.031079434 -0.022302743 -0.15272723
dataarray -0.09697589 0.03595145 -0.026957113 -0.077715576 0.07492241 -0.05007853 -0.10354343 0.18578923 0.20394859 0.012366312 0.0023955372 -0.084286235 0.17424686 -0.1651016 -0.040026683 -0.1914991 -0.11388097 0.14982185 0.0770167 0.13240643 -0.05980563 0.09709094 0.14797726 -0.13782354 -0.12179522 -0.07672673 0.050732344 0.18197091 0.06048874 0.09704393 0.11331022 0.06769976 0.00250649 -0.042027596 0.070228025 0.058386438 0.103866674 -0.06962511 -0.1972776 -0.09726192 -0.023821639 -0.061593805 0.1557067 -0.09308079 0.05401023 -0.10702875 0.0967901 -0.17842238 0.0354165 0.1325652 0.03144783 0.10107581 0.23887023 0.11033653 0.05327178 0.0821069 -0.18582895 -0.1573346 0.010234573 0.12787251 0.020131499 0.09185313 -0.103386275 -0.090909146 -0.1454471 0.04835592 -0.02567719 -0.069276266 0.098297186 -0.094076484 -0.19700176 0.20910868 0.090022 0.13150352 0.10132334 -0.11696197 0.064211406 0.12194397 -0.02884558 0.009195113 -0.08103066 -0.1684179 -0.03900293 -0.06308863 0.08876645 -0.01131186 0.13225302 0.14361535 -0.005354691 -0.0103198495 0.18567511 0.0012167743 0.06589914 0.24468488 -0.20254034 -0.115004845 -0.030870099 0.053615745 -0.03409409 0.011630286
llongmin 0.04211574 -0.051800877 -0.04293245 -0.14013839 0.01945579 0.0063774893 0.1408913 0.19421935 -0.08526924 0.05063615 -0.20108289 -0.02179032 0.13836294 0.2162531 -0.033074602 -0.034109537 0.15418887 0.17254502 0.23266564 -0.18700212 0.14871979 -0.045290798 0.15094113 0.0801131 0.16061214 -0.24137317 -0.012282102 0.12588815 -0.008608393 0.089741856 -0.2105254 -0.23352756 -0.01463158 -0.08993732 0.08249953 -0.022107715 -0.05383829 -0.2087261 0.26947844 -0.026418047 -0.03439073 0.055467714 -0.1729045 0.16505665 -0.04360114 0.029492004 0.06368225 -0.093888454 -0.20811512 -0.056098692 -0.062930964 -0.06490898 -0.07649231 0.054753475 0.07109837 -0.0015002431 -0.17812958 -0.045216028 -0.07585077 0.095450684 -0.17375 -0.0002574866 0.12348366 0.0791702 0.0012234068 0.1525873 -0.047068603 0.18752822 -0.08821426 -0.16670002 -0.19530854 0.030932432 -0.13111724 0.19244577 -0.18234594 -0.13979954 -0.10651456 0.091923125 0.012994711 0.021499969 0.14798675 0.1219783 -0.048697047 0.0077213636 -0.023815604 0.18693343 -0.021772137 -0.25826174 0.10715357 -0.023803862 -0.10698475 -0.01874748 0.15532108 -0.08315257 0.07269029 0.12924004 -0.11393909 0.060972285 -0.10944524 -0.057491295
makeword -0.08648098 -0.18006955 -0.13538575 -0.1009944 -0.099275306 -0.12284215 -0.055877913 -0.087976016 0.10741749 -0.14813052 0.032451935 -0.073673286 0.042512774 0.09161245 0.034743063 -0.052220367 0.083845556 -0.030319322 0.18750529 -0.098832324 0.06902504 0.12894453 -0.103677645 0.069224454 0.037852064 -0.10487462 -0.051113762 0.007317862 0.068652324 0.04438164 -0.1625906 0.12596375 -0.059703656 -0.20786071 -0.07344446 0.007737799 -0.10478721 -0.10237771 -0.09338239 0.10295409 0.112634756 -0.074676655 -0.2152454 0.07683599 0.013751108 0.0031017314 -0.0036859498 0.06044848 -0.092177674 -0.13153017 0.10937169 0.112647064 -0.041433766 -0.008755291 -0.12813993 -0.002193725 0.028534975 0.051999565 -0.041370526 0.093959816 -0.07225885 0.21451727 0.1672857 0.025028605 0.033503104 0.12458826 -0.1114611 -0.0041501145 -0.04037552 -0.20794486 0.1507699 0.13660151 -0.14110912 -0.021321937 -0.02288468 0.06610837 0.16641228 0.09174363 -0.1241717 -0.11434539 0.13386294 0.11406838 -0.043976575 -0.058202323 -0.012472341 0.15394704 0.09834755 0.05757131 -0.071220085 0.031942543 -0.0060554463 0.104407445 0.097504385 0.05319976 -0.11167546 -0.18898714 -0.11156499 0.2263142 -0.0975045 0.15109329
sockstream -0.13304988 0.0857701 -0.013953952 -0.15517372 0.18854304 -0.022821862 0.08923464 -0.0893059 -0.12522684 0.02256213 -0.030122168 0.12661768 -0.027949004 0.14132382 0.19389504 0.08506052 -0.017341554 0.16771111 0.2429891 -0.04118295 0.13723092 -0.01578781 -0.057701338 -0.06416546 0.119812 -0.095419474 -0.18665445 0.13030806 -0.045297157 -0.030460184 0.13204642 0.06707075 -0.101800114 0.16370666 0.061964016 -0.11343312 0.025924638 0.047435623 0.031748313 0.12005678 0.04127128 0.18712878 0.057261363 -0.11981737 -0.07364672 0.028766297 0.07498513 -0.14694864 -0.1990169 0.11943391 -0.029501377 -0.18153447 -0.036049973 0.18357308 -0.022463745 -0.16559464 0.11889271 -0.11937891 -0.0158066 0.0615938 -0.22337112 -0.036353193 -0.1585884 0.10385832 -0.04400211 0.030987028 0.03566076 0.066639684 0.01807689 0.03841134 -0.15742181 0.06821828 0.10001622 0.08807173 -0.07905788 -0.05161516 0.0048848763 -0.20125386 0.11656326 -0.10735208 -0.087622076 0.17791706 -0.06437766 0.15624836 -0.015501602 -0.026785051 0.12463906 0.15727748 0.16633575 -0.08452101 -0.17032215 0.09954595 -0.009292395 -0.013605862 -0.19409505 -0.12930316 -0.11601268 0.050982945 -0.04895815 -0.057859574
saddr -0.12304996 -0.07347284 0.051903997 -0.043864846 0.012645781 0.14287646 -0.051537693 0.10540558 -0.08297144 0.076410495 -0.028528253 -0.09113624 0.052972246 0.23899576 0.06247407 0.013309062 0.19641037 -0.118640974 0.20945172 0.08078498 -0.037785355 -0.12977454 0.065700635 0.20181465 0.20376974 0.16818327 -0.03765578 0.12605378 0.12908304 -0.10928858 -0.041351676 0.023243506 0.15399976 0.0967474 -0.07863513 0.032791104 0.07979824 -0.04416431 0.16440713 0.05100618 -0.0070760488 -0.09016386 -0.1989284 0.09559103 -0.13675693 0.22168645 0.019688314 -0.067275435 -0.013839888 -0.04582057 0.06985658 -0.1629681 -0.11078661 -0.052229807 -0.026087044 0.05203647 -0.06932492 0.033640288 0.033711415 -0.08454581 0.0338887 0.23654066 -0.048356563 0.04378032 0.16873941 0.108673036 -0.13061062 0.06970333 -0.16558671 0.051374055 -0.058774978 0.051400613 0.12389529 0.11494632 0.108481616 -0.04697105 0.15325247 -0.0067580063 0.010421174 -0.078479595 -0.017991774 -0.037589006 -0.0687515 0.074613795 -0.21605806 -0.026746495 -0.040443998 -0.13451461 0.07657431 0.092822365 -0.04003782 -0.05883651 0.019359311 -0.10972144 -0.11371063 0.042341657 0.07704814 -0.019484868 -0.09176178 0.117679
sinfamily 0.017571459 0.14381927 -0.0038187078 0.09047703 -0.000100543344 0.0675653 -0.07439406 0.0069620535 -0.10434672 -0.069487706 -0.017665466 -0.08754363 0.0814821 0.13909449 0.12720765 -0.107340306 -0.013384767 -0.073149346 0.14547339 -0.21111383 -0.05582283 0.06490872 0.054954022 0.1451504 -0.10456566 0.12895466 -0.14138794 -0.014518318 0.08621019 -0.0065611997 0.09823615 0.101624504 -0.13302472 0.1144439 0.09202095 -0.004332145 0.05478555 -0.06654686 0.01746901 0.17712335 0.026332036 0.024589537 -0.20862472 -0.15547481 -0.027188236 -0.14337754 -0.081257895 0.039423652 0.12030075 -0.08525873 -0.061898287 0.0489064 -0.1461001 -0.10548128 -0.10720546 0.11730486 -0.024499616 0.13802996 0.060804494 0.066624925 -0.08079365 0.11183175 -0.1078629 0.19195381 0.17582266 0.1156762 0.01166674 0.013256584 -0.042221315 0.076127164 -0.051644083 0.09186448 0.014920905 -0.09819818 0.070907146 -0.113748685 0.01789376 -0.17893934 -0.07432051 -0.09600473 -0.06247853 0.089490265 -0.102338366 0.005273206 -0.17009795 -0.12852612 0.05015608 -0.004917085 -0.11385903 -0.1029838 -0.10076084 0.16337661 0.12799527 -0.08409355 0.14571291 -0.08907153 -0.1370425 -0.082336955 0.16405894 0.18842673
sinport -0.096583135 0.005859751 -0.124288976 0.11476308 0.17762248 -0.079410486 0.044815876 0.07557458 0.005160079 0.08414199 -0.22633055 0.045247585 0.015458926 0.11135054 0.17134874 0.0851162 -0.009763374 -0.034705285 0.22519308 -0.20295313 0.1210227 -0.10528422 0.04487038 0.08297118 -0.121415906 0.033041462 -0.032461822 -0.024653826 -0.08832959 -0.089884184 0.10910793 -0.14215688 -0.010347342 -0.12948209 -0.0093476325 -0.18239139 0.01775939 0.0435682 0.20036235 0.17617442 0.04754351 0.009488928 -0.08400995 -0.0042026937 -0.119522214 -0.023452936 0.08668394 -0.07646918 -0.0021240548 0.038970724 0.1531363 -0.09735638 -0.10107799 0.0108492235 -0.008002669 -0.13454698 -0.047611665 0.13705462 -0.10163844 -0.070102766 -0.093594156 -0.007894504 -0.042918652 -0.093625896 0.16012433 0.041989204 -0.12838106 0.10395884 0.059040397 0.0058292584 -0.13969222 -0.11231802 0.17660315 0.19074221 -0.08418615 -0.109701134 -0.019776557 -0.12828682 0.074620195 -0.15318374 0.048429586 0.0826754 -0.019825924 0.017822335 -0.030091653 0.14198934 -0.051928528 0.009404246 0.0695851 -0.0013306495 -0.08909463 0.047899634 -0.05469709 -0.059695877 -0.10428607 0.020753978 0.13516349 0.18586226 0.16056009 -0.031599194
noerror -0.054261815 -0.13060802 -0.133727 -0.084795505 0.16358256 0.18233907 0.052955367 0.15754452 -0.23379995 0.0027008457 -0.20592058 0.044140134 0.12632327 0.14315297 0.25731897 0.0510109 -0.09203839 0.04483462 0.07875926 0.01860965 -0.020556068 0.11914347 0.15920189 -0.03136827 -0.06482975 0.02023009 -0.24054837 -0.113550656 -0.058849055 -0.07072772 0.14252049 0.022152517 -0.19972563 0.13306808 0.18796039 -0.20308691 0.14632921 -0.0018602975 -0.0890903 0.167895 0.21739903 -0.10438741 -0.01208845 0.18151997 0.012206903 0.031579632 -0.108711734 -0.11294944 0.09532261 -0.13072419 0.08615235 -0.011845447 -0.11816028 0.12417115 0.11391734 -0.15625435 -0.07029549 0.11096042 -0.059775352 0.056713633 -0.21597622 0.0844031 -0.09351584 0.17100088 0.0002390368 -0.102977656 0.13778572 0.035915405 -0.05111554 -0.17728105 -0.062460355 0.010495472 -0.05624471 0.14157696 -0.15360284 0.04183766 0.1688061 -0.05381451 0.13445927 0.039973978 0.20375241 -0.021932172 0.13880134 0.24191824 -0.055759385 0.20301226 -0.12168698 0.031071363 -0.06748821 -0.1418196 -0.1487606 0.16354126 -0.1747368 0.06283351 0.051268667 -0.20326386 0.12564199 0.034443066 0.053331282 0.111731045
wsastartup -0.07476995 -0.18653391 0.13431293 -0.014451804 0.09531214 0.15840057 0.06794794 -0.16453117 0.1138734 -0.062097955 0.00022809167 -0.07288479 -0.13875893 0.18543835 -0.03797853 0.16080217 0.14871876 0.034326017 -1.0057207e-05 -0.17583087 0.008212488 -0.036106035 0.024656065 0.019553106 0.13083975 0.063794196 -0.020533046 0.116008095 0.1380885 -0.109902605 0.034792077 -0.1359337 0.08739303 -0.018729098 0.0293688 -0.10260006 0.07666999 -0.10765794 0.11412167 0.124769 0.14754766 -0.01344903 -0.11223621 -0.17619063 -0.23177178 -0.031789966 0.078564554 -0.074380316 -0.19440667 0.06598761 -0.12679811 0.03289263 0.04581295 0.062397137 -0.00070998236 -0.14552362 0.057149377 0.12384889 -0.10228399 0.07148147 -0.17718081 0.1361942 -0.11109714 0.12771001 0.024332998 0.11368171 0.051271457 0.0050945883 -0.13960344 0.053559564 -0.05722646 -0.13871457 -0.086185984 0.193869 0.102467686 -0.071815364 -0.16286284 0.11527085 0.06756374 -0.13891517 0.003970783 0.039163478 0.14699124 0.039528657 -0.12758644 0.016429571 0.007069113 -0.11443562 -0.1713937 -0.21152574 0.048791345 0.044649933 0.00021412662 -0.0141367735 -0.13558371 0.060799256 -0.039362825 0.037734337 -0.09999861 0.14568728
sinaddr 0.015766226 0.11007842 -0.19903278 -0.018160816 0.12617132 0.16061644 0.1158735 0.0037015525 -0.09431198 -0.086707056 -0.12079958 -0.062168993 0.13393399 0.108828165 0.028303782 0.06256592 0.14958802 0.15592103 0.23508115 -0.1998693 -0.17960791 0.14201239 0.06419907 -0.0792451 0.19186501 0.08033472 -0.14038889 -0.041619413 0.10863714 -0.12561794 -0.09018515 0.040598042 -0.07503111 -0.05590121 -0.048678704 -0.061616555 0.014878619 -0.12781431 0.046365675 0.048574746 0.21014094 -0.04215128 -0.06028061 -0.0808864 -0.010746988 0.052698202 0.070579655 0.008089352 -0.08801439 -0.17796528 -0.036153603 0.104295895 -0.13719901 -0.037405174 0.10014007 0.11382201 0.093266755 0.10753309 -0.1553077 0.0149965575 0.04173238 -0.13937205 -0.09764075 0.18775064 -0.014152681 0.01860594 -0.10320416 0.02353501 -0.012714301 -0.04392606 0.10952546 0.115496024 -0.1510759 0.13365415 -0.03178402 0.06998073 -0.049744323 0.048448443 0.02975534 0.12689245 -0.11591095 0.07175036 -0.048015878 0.012724351 -0.017772773 0.043692373 -0.023625609 0.11152024 -0.14138888 -0.07008649 0.08145303 0.19167887 -0.022628738 -0.17022091 -0.02567129 -0.09199562 0.10385606 0.10924358 0.16918987 -0.15721442
htons 0.059674274 0.045847226 0.0051292256 -0.11306931 -0.005017425 0.009098208 -0.12737782 -0.14476925 -0.15774049 -0.07874371 0.06995142 -0.11832804 0.014956759 0.22975881 0.19522716 -0.028052086 0.17225763 0.18027264 0.20193017 -0.101098605 -0.1061951 0.047167722 0.049774505 -0.022292193 0.17377472 0.07355164 0.051135123 -0.051293537 -0.114800036 -0.13339075 0.039192513 0.12381496 0.12492124 -0.19203909 0.11325679 -0.17756045 -0.09692158 -0.0041347644 -0.06476914 -0.06252583 -0.07450586 -0.1334759 -0.14057457 0.13482171 -0.17259355 -0.008554988 -0.07580577 0.007942112 -0.1767855 0.061276834 0.0063521694 0.038014244 0.0946758 0.1754506 -0.11709274 -0.08136817 0.20735624 -0.07066266 -0.042978145 0.16774909 -0.16072083 -0.096638516 -0.08062097 -0.05014586 0.09641 0.2221708 -0.028216442 0.0037321278 -0.17433086 0.115985096 -0.14154507 -0.16203888 -0.1521535 0.049039382 -0.032295626 -0.13747163 0.056990534 -0.017125003 -0.13642375 -0.08172463 0.14773566 0.13250597 -0.1612605 0.08014989 -0.19986819 -0.02212775 -0.02566611 -0.035257537 -0.06597123 -0.120153904 0.014087543 0.12849538 0.13358302 0.06214157 -0.034559347 -0.13204145 0.118960485 0.10834191 -0.0868241 0.13453098
tcpport -0.011811781 0.085119896 0.014225811 0.051037267 0.12446711 -0.14217179 0.10820505 0.0033935937 0.011916938 -0.053825453 -0.025118792 0.04226273 0.024324792 0.109146275 0.061614666 -0.16885582 0.22882585 0.1465139 -0.05856682 0.100231655 0.054350413 -0.05827248 0.06955231 0.056722745 0.014714823 -0.091221005 -0.06876834 -0.06473622 -0.21088107 -0.13342448 0.10781796 -0.062490944 0.011357366 -0.039330352 -0.06703902 -0.057845064 -0.09092403 -0.052489143 0.20817219 0.10283524 0.043022875 0.12901704 0.077445336 0.11179414 -0.1713236 -0.10230723 0.024208166 0.013533741 -0.21368542 -0.16062976 -0.0018771254 -0.20067485 0.04629367 0.020716073 0.10268157 0.04485094 0.13806443 -0.050049618 -0.17878167 0.13082792 -0.008932468 -0.0044755074 -0.035697445 0.016363692 0.032978885 0.16231361 0.14177108 0.045663908 0.1334181 -0.0726339 -0.11691752 0.021767661 -0.039636537 -0.12725993 0.0009815152 0.08621038 -0.059764937 0.0001975027 -0.022321211 -0.07319742 -0.034920588 0.1168137 0.12336752 0.05895257 -0.035548497 -0.07286293 0.038834427 0.17494167 -0.020875372 -0.16007967 -0.13248044 0.054021973 0.027538838 -0.19148214 -0.14918324 0.028678324 0.15567887 0.12527642 0.22628307 -0.041996427
ipprototcp -0.09577316 -0.09175576 0.011735915 0.045486122 -0.122587085 -0.15355763 -0.034959838 0.09333489 -0.1463696 -0.13448682 -0.16322055 -0.15464248 -0.03223134 0.1375473 0.0049043754 -0.0211979 0.07211913 -0.05351463 -0.08754292 -0.21505982 0.10633844 -0.010225728 0.09058829 -0.04907828 0.16826378 -0.12744749 -0.0035541907 0.080777965 -0.14786553 0.028219083 -0.002014612 -0.04331633 0.01767547 0.043776657 0.18958904 -0.11480637 -0.1331574 -0.045907598 0.19911994 0.07484232 -0.030519685 -0.17417459 -0.20236842 0.01781351 0.02738805 0.1385292 -0.108305566 0.061896764 -0.082682125 -0.07154792 -0.021344049 -0.19097589 -0.056384623 0.16968371 -0.12944213 -0.17531641 0.048659764 -0.03079304 0.060257174 0.033501465 -0.12481531 0.0560712 0.05743948 -0.07251526 -0.0970845 0.17981635 0.08245951 -0.2078679 -0.03423783 -0.044635233 -0.07916432 -0.07661405 -0.115950085 0.15685424 0.15805754 -0.10872459 -0.09629371 -0.105524756 -0.1605009 -0.05482038 -0.114445545 -0.083493516 0.004909325 -0.07433973 0.044304058 -0.079495296 -0.14493719 0.14840949 -0.03803816 0.12328364 0.104725376 0.12507142 0.07825086 0.013213066 0.045177884 -0.17677405 -0.006457359 0.20515154 0.10396361 0.059407927
memset -0.08810432 -0.0724662 -0.14545146 -0.048984893 -0.008287138 0.10573003 0.10447495 0.05216359 -0.15099975 -0.08245025 0.080933206 -0.093255274 0.124352284 0.013506222 -0.08355312 0.15700625 0.13053054 0.175602 0.23205326 -0.23465504 0.07645594 -0.073996186 -0.14094804 -0.13561513 0.005337408 0.0017626852 -0.10372971 -0.053120863 0.13563661 0.1755974 -0.12769733 -0.10103774 0.09746566 -0.06646659 -0.07652269 -0.111706845 0.030586405 0.03663706 -0.11738013 -0.065376654 0.025779648 0.06814227 -0.094664656 0.0036446566 0.06797249 -0.043465767 0.03940358 -0.03950895 -0.11715235 -0.1562373 0.09258299 0.074284665 -0.17640238 -0.10121997 -0.09361534 -0.095953435 -0.030573742 0.07815533 0.06335838 0.06771689 0.10547879 0.054058436 0.032768037 0.11468649 0.06602334 -0.04247391 0.02675769 -0.05255726 -0.18288851 -0.20365065 0.0976943 0.12527992 -0.17048296 0.14769842 0.090824485 0.07648534 -0.032644574 -0.08820434 -0.02920748 0.041221764 -0.07019716 -0.01276169 0.09748736 0.08644412 0.07635475 0.06517856 0.056126207 -0.094239876 0.07091423 0.047469266 -0.018083896 -0.11745688 -0.07670708 0.098045886 0.012253996 -0.21724252 -0.1336769 0.15851176 -0.061154418 -0.07780484
recv 0.09814477 0.05008514 0.011551807 0.15309304 -0.012208344 0.017136054 0.031884972 0.051050358 -0.2714138 -0.17062253 -0.21385932 0.10103166 -0.015232404 -0.008662699 0.18868992 0.16087809 0.29132262 -0.08449051 0.04440959 -0.060065873 0.06732841 0.13907848 0.04031615 0.26379427 0.05904283 -0.0826762 -0.095801145 -0.15793417 -0.1684078 0.038201027 0.09470158 -0.06469891 0.104597844 -0.0840244 0.022851082 0.02457884 0.14234725 -0.06945484 0.0059730657 0.10390942 -0.01786111 -0.036172725 -0.022374982 -0.062212456 -0.27214006 -0.05287342 0.08915544 -0.15808862 -0.14641216 -0.0078563215 0.041625082 -0.17551555 -0.069946416 0.21206169 0.03268342 -0.018896101 -0.06935208 0.078992926 -0.008435302 0.114373155 0.022834599 0.022038953 -0.15472151 -0.15631585 0.13929415 0.2764116 0.15428762 -0.080467716 -0.09959675 -0.19375822 -0.07306694 -0.05879789 0.0282333 0.03480131 0.19636036 0.21655367 0.11638898 -0.13365407 -0.061952822 0.11447259 -0.1470659 0.16166142 0.13823345 -0.035850864 -0.028412335 0.110370815 -0.117322885 0.1722192 -0.036000628 -0.035525143 -0.19377555 0.14998676 -0.041022077 -0.2443246 -0.056217726 -0.2242594 -0.13849404 0.03968456 0.20317431 0.004415351
\0 -0.1360822 0.007925009 -0.14298132 -0.10799364 -0.08312917 0.092601456 0.094781645 -0.19589205 -0.06888739 -0.08556494 -0.049314108 -0.17166536 0.18228315 0.078359194 0.02139406 -0.024117066 0.16667509 -0.06965362 0.013012326 -0.23427662 0.010591565 0.047958095 -0.11829919 -0.09122343 -0.09164198 -0.07385496 0.05414249 -0.08162778 -1.0398568e-05 -0.10887757 0.08511518 -0.121487744 0.093242034 -0.13684955 -0.10590385 -0.14561552 0.17405729 -0.032107435 0.12223954 0.112566866 -0.038919095 0.028115073 -0.12500067 -0.059187595 -0.19196106 0.04644639 -0.11184145 -0.07023949 -0.228633 0.03210675 -0.0830792 -0.17292769 -0.012241143 0.08107412 -0.15085493 -0.16346112 0.009060641 0.19887464 -0.036486957 -0.008981734 -0.22686675 0.2188866 -0.061203077 0.09066686 0.12742 -0.08228999 0.093927115 -0.043864474 0.037481125 0.054362707 0.019477962 -0.0884075 -0.0019612582 0.21277842 -0.1840566 0.16050544 0.10175777 -0.04278409 0.050340906 -0.133606 -0.072930075 -0.07961251 0.08346943 0.25864828 -0.059217464 -0.09057883 -0.15629503 -0.14480454 -0.047851756 0.07513745 0.1109716 0.038821474 0.041526873 -0.15763134 0.11691113 -0.045260366 -0.0395365 0.15582283 0.062389765 -0.0067909104
structsockaddr -0.09364156 -0.19627464 0.0063363756 -0.040947847 -0.12856317 -0.06257325 -0.027381182 0.12677161 -0.17710309 -0.14407447 -0.090495765 0.15958428 -0.124394275 -0.0044745523 -0.06589793 0.09133283 0.010182972 0.15363784 0.21051288 -0.049514387 -0.0033780597 -0.11709288 -0.038981747 -0.124693476 -0.016810806 0.11104019 -0.035697326 -0.13484079 -0.009281444 0.028145254 0.04290604 -0.0113490345 -0.15239747 -0.13211386 -0.001337081 -0.13796626 -0.1100005 0.03792238 0.20428732 0.10104959 -0.13612126 0.106954165 -0.00024197633 -0.0745444 -0.16389412 -0.017273316 0.16962692 0.10230031 -0.1068585 0.024208486 -0.05102548 0.007691273 -0.1489384 0.06658467 0.06141474 0.08351466 0.010638795 0.19521533 0.06646542 -0.11899102 0.061790653 0.17624784 -0.085464865 -0.118352614 0.1867642 0.051981177 -0.14946088 -0.15529421 -0.16734906 -0.0048866803 0.122729436 -0.047274087 0.13226262 0.2002207 -0.12118822 0.024616007 -0.09369019 0.07131035 0.092454374 0.009762537 -0.03252746 -0.074189775 -0.060900748 0.084729746 -0.21131621 -0.06811118 0.01760029 -0.023645708 -0.17212087 -0.15093501 -0.07063448 0.227597 -0.01480603 -0.103772864 -0.14096075 -0.112138025 0.15661941 -0.037217114 -0.08254692 0.1844033
shrtmin -0.20226541 0.05772277 -0.15524083 -0.15404025 -0.07630561 -0.06848073 -0.07778944 0.011737385 -0.07027976 0.038040157 0.07198946 -0.079109274 -0.012985551 0.16589169 0.15641424 0.07727783 -0.06584716 0.21012904 0.2345857 -0.0734033 -0.12648469 0.105182454 -0.040446788 -0.15082778 -0.12100484 -0.09534473 0.005772494 0.1191537 0.029377054 -0.008196463 0.014688242 0.09229983 -0.10966979 0.07424424 -0.028807059 -0.101400234 -0.13189869 0.06056707 0.029708343 -0.07778699 0.06065908 0.060970854 -0.02501065 0.032373175 -0.13005881 -0.017661056 -0.18427984 -0.028727185 -0.13822596 -0.109600626 -0.22177882 -0.20846273 0.005681502 0.010972942 0.092966884 -0.19050784 -0.17990948 0.15066662 -0.026150912 0.09133581 -0.15415728 0.06222085 0.17976062 0.12874268 0.078254335 -0.0944644 -0.008667935 -0.20938426 0.02469818 -0.14280824 0.049780246 -0.09635777 -0.023855753 0.16174747 0.08709984 0.2162735 0.10284516 0.09442237 -0.03902279 0.06667926 0.082479395 -0.054552693 0.064087585 -0.0025441656 -0.21070038 0.23585169 0.11025534 0.15988609 0.021255288 -0.17588963 0.02855645 0.16168053 0.054266013 -0.16691959 -0.104539 -0.16333748 -0.1862522 0.14057794 -0.08022671 0.091815434
charmin -0.0014909881 -0.13739331 -0.055398818 0.17291316 0.03431203 0.092665374 -0.15734997 -0.0037091414 -0.16275233 -0.0023164982 0.11092077 -0.12501895 0.047835037 -0.07959086 -0.16671263 -0.1476462 -0.030808462 -0.0351976 0.089819975 -0.043951474 0.09054386 -0.12303821 0.20008193 -0.02660989 0.010971359 0.061164115 0.22166647 0.08760692 -0.168541 -0.039736196 0.072713666 -0.056141544 0.04730407 -0.03065071 0.018938083 0.04540513 0.06164692 0.15952784 0.28630537 0.019638978 0.043747332 0.23714435 -0.08673149 0.058236416 -0.283152 0.058516677 0.11779587 -0.2252258 -0.025086708 -0.00786909 -0.11650431 -0.11095618 0.17280853 0.16542524 -0.012157475 0.116588205 -0.02207322 0.19145554 0.027312072 0.045044553 -0.2573655 0.05770678 0.01746315 0.09941722 0.021376044 0.0037089945 0.039580718 -0.22328581 -0.15736875 0.12273516 0.23189566 0.08543919 -0.15228893 -0.106527835 0.1284368 0.18839586 -0.18703283 0.20602766 -0.14792007 0.04415335 0.1907343 0.23502225 0.13242336 -0.069593035 0.055883292 0.14439107 -0.086552724 0.13827801 -0.07148746 -0.27387142 0.13215648 -0.013086944 -0.016006164 -0.086426266 0.028894188 -0.2029707 -0.052400347 0.14008965 0.05308137 -0.0156458
wsacleanup -0.07409764 0.018778624 -0.11390152 -0.10242949 -0.09017131 0.011269117 0.015588925 -0.10051677 -0.108440585 0.03487917 -0.15205336 0.021027993 0.23753795 0.1274984 0.029897897 0.24862254 -0.13074413 0.17364815 0.18227379 0.016178777 -0.07560868 0.09431272 0.05392748 0.024705805 0.2544336 -0.046849135 -0.0003713257 -0.034039896 -0.030424753 0.086199336 -0.08573847 0.004093747 -0.06014927 -0.16092195 -0.09135181 -0.11110751 0.11352664 -0.20052895 -0.16542788 -0.0670897 -0.12033315 -0.09570389 -0.07299754 -0.1495362 -0.1809349 0.109894514 0.20279591 -0.09897175 0.04261088 -0.06339251 0.18517213 -0.041646246 -0.09683525 0.1517024 -0.13321055 0.16526301 -0.008861559 0.07970042 -0.121317744 0.0751412 -0.05321465 0.13330232 0.04590299 0.029871931 -0.039753087 0.08326581 0.1025109 -0.07183356 -0.06942587 -0.11516667 0.001759198 0.13063179 -0.14122131 0.12971056 0.13572308 0.05232903 0.20611602 0.059016038 -0.15164736 -0.024948642 0.049877048 -0.09939962 0.1971934 -0.027454888 -0.16667908 0.002494791 -0.18110947 0.1062541 0.0015811273 0.0762959 0.0069758417 -0.09388817 -0.09948955 -0.16603509 0.04689339 -0.08641092 -0.03619023 0.051290527 -0.0028202408 -0.046003636
i -0.13591298 -0.040721823 0.065648675 -0.10372462 -0.17054671 0.010656774 0.028299093 0.08525046 -0.18750603 0.068645455 -0.07891263 0.0280721 0.121017165 -0.0059485636 -0.030635826 0.053377893 0.076486215 -0.07309757 0.062347323 -0.23862833 0.036256135 -0.16628878 -0.10359124 0.0768023 0.07420049 0.048282523 0.05697856 -0.2569729 0.047048435 0.13006634 0.06562052 -0.0551124 0.21293008 -0.010527438 0.0940327 0.11515073 0.049528927 0.070305355 -0.007010089 -0.04913995 -0.03888101 0.013733923 -0.14896965 0.097924426 -0.2368754 0.10024842 -0.09753781 -0.0006821851 -0.123663515 0.010996854 0.13002743 0.16135481 0.0045762975 0.14047946 -0.1834548 -0.018411888 -0.04043666 -0.092001356 -0.028930202 0.03319368 -0.12728687 0.15614106 0.19362555 -0.0791467 0.15160243 0.048443973 -0.008820888 0.051602576 -0.26458836 -0.26960582 -0.03154364 -0.22567706 0.082226254 0.11802766 0.16609453 0.061627302 -0.1612826 -0.08478582 -0.08151951 0.16844657 -0.052013006 -0.11111577 -0.2402086 0.2142634 0.042214975 0.1278328 0.040742673 -0.09000334 0.0003892961 -0.2683976 -0.045936342 0.027168386 0.054245334 -0.16192949 0.13319707 0.00836091 -0.12965995 0.14591502 0.16879569 0.03540469
datavalueistoolargetoperformarithmeticsafely -0.09770846 0.0041291434 -0.11335252 0.010154667 0.053118955 0.15066524 0.12579599 -0.140177 -0.19937092 -0.10493336 -0.13184753 -0.13722347 0.075400226 0.10187919 -0.019711753 -0.0700828 -0.07306347 0.11936937 -0.08019721 0.10570132 0.04517859 -0.049487654 -0.08053453 0.18223923 0.054166406 -0.00093745027 0.012191199 -0.0924379 -0.18348117 0.09332245 0.06986558 0.034419443 -0.039590262 0.057547767 -0.011738571 -0.19461927 0.058746923 -0.07818255 -0.018303389 0.21021362 0.1636276 0.16745032 -0.071783 0.10059586 -0.16301522 -0.094082676 -0.13957182 0.012532317 0.047602497 0.045659978 0.04071222 0.086216554 -0.1155803 0.14786611 -0.1333045 -0.02125565 0.0028333454 0.04389711 0.16304776 0.11371422 -0.20214845 0.05283299 0.15834777 0.14235382 0.060457565 -0.0033927609 0.0034314704 -0.116357855 0.13200405 -0.15681238 -0.0059032016 -0.16233245 -0.16194648 -0.03553155 0.09346795 0.028966954 0.15541437 -0.2085147 0.017693024 0.06726568 0.07655626 0.2262972 -0.13602218 0.03933035 -0.11772496 0.0089883935 -0.049629018 -0.03561084 -0.04640993 0.02952864 -0.18641084 0.09543202 0.04718802 -0.027636554 -0.111032434 -0.09757053 0.14856376 0.030039439 0.077790126 -0.12866867
j -0.11999026 -0.10714233 0.0031784482 -0.05582083 -0.10078587 0.02512417 0.112693794 0.031797297 -0.048146185 -0.09076829 -0.14524078 0.030595932 -0.026763177 -0.054758288 0.03822279 0.09416605 -0.24055885 0.00914519 0.21764009 0.0047707073 -0.026960714 -0.06251423 0.08971173 -0.13691248 0.18311219 0.06360935 -0.13943186 -0.13073727 -0.08587319 -0.08621195 0.09044026 -0.04567959 0.0049787397 -0.04477567 0.075551756 0.1641758 0.15444127 0.16585386 0.116389476 -0.06419923 -0.094141394 -0.1744368 -0.09941213 0.021984607 -0.046965428 0.18713817 0.033337846 -0.1595119 0.12618853 -0.250547 0.07612602 0.018684724 0.07691687 0.051891427 -0.18581596 0.08421435 0.11558476 0.27871132 0.030521067 0.07231528 0.14008133 0.14310087 -0.09000813 -0.2226223 0.11569676 0.08109991 -0.013436943 -0.0416168 -0.012938845 0.0475088 -0.13253874 -0.16794217 0.040156227 -0.088974945 -0.07467117 -0.17241673 0.12673433 -0.101436496 0.11888486 -0.036288027 -0.06558298 0.10136464 -0.038774934 0.23283389 0.17204341 0.105494745 -0.15935753 -0.0061242823 -0.15235119 -0.048453316 -0.115031004 -0.037730414 0.09610241 0.123361826 0.13724348 -0.23515092 -0.10504282 0.16951247 -0.027354607 0.029231247
datacopy 0.022120325 -0.046196256 0.04327294 0.13724267 -0.06748428 0.05628354 0.054469626 0.07975819 -0.044154674 -0.06622086 0.2435327 -0.23286298 0.19267233 -0.08762406 0.22994699 -0.22588183 0.17148894 0.22941926 0.15937473 -0.14004862 0.055398323 0.038251564 -0.102682136 0.031621527 -0.0063855406 -0.10062208 -0.11343409 0.010933933 0.10693265 -0.1764881 -0.124079995 0.006070081 -0.08083351 0.15414144 0.0959521 -0.23069336 -0.19498177 0.02075291 0.120129295 0.087142125 0.15116 -0.11667642 0.09179336 -0.018493352 -0.08546147 -0.0063551106 -0.01386285 -0.22830349 -0.1269659 0.11678745 -0.2180145 -0.29090455 0.105954126 -0.12984422 0.0010537019 -0.14957942 0.021394217 0.08137258 -0.07524607 0.22051972 -0.097159654 0.29238424 0.190064 0.15334663 0.10076392 0.03627222 -0.17812648 0.127666 -0.008411613 -0.032460768 -0.22452065 -0.016280415 -0.042221233 0.050987482 -0.060243435 0.047210038 -0.06541033 -0.022087796 -0.11540475 -0.25048947 0.14031737 -0.02576514 -0.16079767 0.15810056 -0.19088575 0.17022535 0.036053065 -0.1313427 -0.048628118 -0.17625271 -0.0401641 0.25511605 0.15317418 -0.0928849 0.13154995 -0.22568816 -0.09860549 0.08492589 0.10402905 0.14845768
globalfive -0.08289583 0.03436148 0.11811953 -0.05558385 0.09126288 0.05787001 -0.021055045 -0.07591314 -0.028338213 -0.034640424 0.14128217 -0.05249309 -0.09673137 -0.035370704 0.1524213 0.011417089 -0.112323925 0.13017105 0.11174053 -0.1554283 0.08998003 0.16858469 0.04172909 0.08959962 0.118714295 0.0069552287 -0.153557 0.016924812 -0.16302614 0.084820084 0.08505144 -0.114468314 -0.18399872 0.18545318 -0.01116317 0.0807355 -0.15341806 0.051165506 0.025227886 0.046058334 0.052199457 -0.08938781 -0.030922793 0.11875147 -0.11964778 0.15671611 -0.016301664 -0.07450643 0.05343159 -0.07758633 0.0036901764 0.0874263 0.038465682 -0.14771365 0.15829839 0.08919926 0.16137823 0.1501245 0.08031899 -0.061258167 0.0939057 0.16985193 -0.10748624 0.036498275 0.07054334 -0.05063064 0.14009327 -0.113238364 -0.19948992 -0.14051911 0.11287719 0.122824885 0.113757215 -0.1667562 -0.13153854 0.109024696 0.14639042 -0.121892415 -0.015574743 -0.0343413 0.044527028 0.18567638 0.17579153 -0.08008185 -0.20950621 -0.04656295 0.09984102 0.011922399 0.06684654 -0.17828445 -0.14916278 0.034753717 -0.010738682 0.099341206 0.12785754 -0.0631846 -0.058978878 -0.05761645 0.19135249 -0.09552139
staticfive 0.08022931 0.2086985 0.07484945 0.12499647 0.08463775 -0.023029506 0.16568074 0.19213858 -0.011393455 -0.10444808 0.17824106 -0.06360433 -0.059515037 0.0909334 -0.070572846 0.023179501 -0.03021707 -0.037355572 0.07630708 0.008964134 0.14314634 0.17247866 -0.03922634 -0.17763439 0.12185172 -0.006807427 0.10920837 0.08315631 -0.1290549 -0.09073119 0.1270043 -0.111536965 0.04669535 -0.09294713 -0.06849099 -0.12428259 0.11286548 -0.02693027 0.15299292 0.112914264 0.031626325 -0.055767644 0.16525134 0.12244333 6.0962513e-05 0.024087736 0.1304513 -0.12350547 0.034473553 -0.15476756 -0.16724257 -0.03434043 -0.046332553 -0.15192358 -0.018022563 -0.0591873 -0.1342252 0.015821692 0.1476998 0.09166421 -0.06056356 0.06545842 0.08304967 -0.0975769 -0.0032240825 0.022564054 0.011148822 -0.020298492 0.03239339 0.08767778 -0.046265233 0.024102105 0.12267835 -0.014807489 0.10041049 0.083856925 -0.091406204 -0.1653012 -0.004882366 -0.0017295487 0.06824244 -0.0932056 -0.06675759 0.078666024 -0.22142778 -0.025604658 -0.16674714 0.14487949 -0.026500309 -0.15174876 -0.18463343 0.1029105 -0.14363414 0.15662183 -0.20590223 0.004950563 0.18482967 0.098168015 0.20605518 0.104655474
EMPTY_TOKEN 0.1059961 0.027596831 0.072322845 0.1427543 0.085405655 -0.11977001 -0.157875 0.019124761 0.09726501 0.11503444 0.026487464 0.163763 -0.08037786 0.14956082 0.07500553 -0.13458434 -0.25934383 -0.051815707 0.20693707 -0.078788 0.24326386 -0.10528933 0.20309173 0.06481605 -0.19610418 -0.19110973 -0.27632514 0.12785357 0.23327509 0.02195998 -0.17903773 -0.16491273 -0.23918453 -0.23833239 0.018277887 -0.18933663 -0.2276489 0.14652522 -0.062738635 0.25844637 0.04136484 -0.1799892 0.2534053 -0.26728874 -0.2959312 0.18263043 -0.057909682 0.14702818 0.16371341 0.21740459 0.083654776 0.24529444 -0.2633875 -0.17117865 0.11447291 0.10009239 0.23206913 -0.22965617 -0.041928876 0.13107929 -0.016326139 -0.12027714 -0.19910532 -0.020866716 -0.020842476 0.060462475 -0.24343547 -0.13071424 -0.26403034 -0.21728186 -0.015744567 -0.15170749 -0.12908326 0.1872441 -0.03209005 0.042773236 -0.14201747 -0.23598726 -0.214267 -0.20313531 -0.28170857 0.2582393 0.11221407 0.27086443 0.066536956 0.25742128 0.12012222 -0.25492793 0.14724469 -0.22651263 -0.17290436 -0.29747218 0.047968768 0.13285774 -0.17714812 -0.2065932 0.025136067 0.056140557 -0.06695794 -0.11574197
myunion -0.27445307 0.09201667 -0.17092943 -0.16047224 0.14500357 0.22710733 0.21760595 -0.08879545 -0.29015863 -0.17170626 0.05316175 -0.015977202 0.08749191 0.08165838 0.23930074 0.0561829 -0.16310178 0.0468558 0.2282123 -0.21282354 0.18283442 -0.07585782 0.045547325 0.16289216 0.14127026 0.24506463 -0.111920126 -0.27118847 -0.22800228 0.13903426 -0.18737562 -0.058086462 -0.15849051 -0.003256118 -0.085236825 0.1145097 0.2035883 -0.0118073905 0.15849929 0.09588992 0.07714712 0.04149218 0.01914466 0.261351 0.0826234 -0.14235325 0.00059710565 -0.16329856 0.0949685 0.041470505 0.09661816 0.14417116 0.07752021 0.21117805 -0.15131453 -0.047467295 0.22187729 0.07322605 -0.13994737 -0.012711478 -0.026164329 0.23475988 -0.13045986 -0.11118335 0.024499526 0.22326845 -0.095609844 -0.13536957 -0.14641666 -0.25728944 0.010923007 -0.08105586 -0.034470133 -0.1660814 0.21290894 -0.20388016 0.07302343 -0.19089837 -0.024888737 -0.09541887 0.0057802927 0.29970554 0.004284914 0.18233581 0.14134443 -0.011785754 0.042185742 -0.07627164 -0.2507329 -0.21313702 -0.23755437 0.20386492 -0.1567602 -0.24657042 0.10874167 -0.2060133 -0.15871114 0.031451773 0.15843534 -0.047394384
staticconstfive 0.01740007 0.1425697 -0.0679335 -0.092897594 -0.08382705 -0.0015166532 -0.037683565 -0.07125896 -0.041309934 0.15861765 0.22402442 -0.11010258 -0.0129194595 0.1156783 0.04658991 -0.04166435 -0.110618085 0.19388309 -0.11976693 -0.021924036 0.025725452 0.12955956 0.13211606 -0.16408733 0.1568683 0.11188745 -0.13461176 0.02909417 0.015484678 -0.030778952 -0.033890594 -0.057877418 0.092239074 0.033025313 -0.1536193 0.10082818 -0.1198083 0.04092188 -0.07847222 0.07939174 0.013875133 -0.10697784 0.18384816 0.0489925 0.09335597 -0.10465544 0.12266087 -0.06312916 0.056944877 0.1024733 0.06999673 0.12695801 0.1460893 0.15232229 0.10167779 -0.13741627 0.054310888 -0.049862873 -0.09807051 -0.06855831 0.09532768 0.04373107 -0.084361866 0.013238747 0.038406324 0.12512079 0.1266296 -0.015840739 0.10995931 -0.1282237 -0.21395577 -0.1419925 0.2083825 -0.021653265 0.015306529 -0.1678924 0.093527555 -0.08597062 0.06920784 0.101416916 -0.077334285 0.18751751 -0.14940146 0.155785 0.09114712 0.1191722 -0.05774397 0.18004347 -0.15410943 -0.08434951 -0.051285774 0.19655624 0.023629827 0.16702248 0.11908618 0.11788369 -0.122110136 0.14831682 -0.0095794 -0.13237047
globalconstfive -0.09079638 0.009924039 0.10680259 -0.1751808 0.06866473 0.19764544 -0.1101844 -0.10863107 0.02005456 0.12442844 0.20102021 -0.2114893 0.21215847 0.035438597 -0.06976064 -0.119051695 -0.053479183 -0.05000465 -0.01281597 -0.14524058 -0.11275507 0.16521204 -0.083012804 -0.033209704 0.0040984955 -0.09588607 -0.17578532 0.0725786 -0.19253421 0.16543418 -0.045827083 0.13339731 -0.002946287 0.031691983 -0.16002369 -0.1269037 -0.0039586616 0.037939534 0.02250635 -0.03195817 -0.09864193 -0.08887059 0.021408934 0.041955374 -0.11644981 0.09353224 -0.07695864 -0.13486476 -0.025922874 0.08386881 0.0013731665 0.11397643 0.04247091 -0.07056585 0.12395043 0.13601227 0.14728297 0.18778026 -0.059622247 0.14245173 -0.18469563 0.02311379 -0.10377234 -0.029911272 -0.12227918 0.15563351 -0.13584173 0.069327325 0.063976444 0.047921576 -0.06947167 0.10559763 0.051320624 0.072832435 0.024446731 0.085307576 0.12998532 -0.12069518 -0.01754213 -0.07732151 0.2001321 0.061319824 0.03296111 -0.06964294 -0.011040288 0.050111167 -0.1266553 0.0059211645 -0.033287354 -0.058391664 0.11483913 -0.083854094 -0.1302081 -0.086195074 -0.14054014 -0.0857742 -0.13513392 0.12133099 -0.076974876 -0.115627296
default -0.033566363 0.16758421 -0.1406373 0.08299111 0.12052983 -0.012814698 0.14482623 0.09831618 -0.182852 0.09213991 -0.07580799 0.1194136 0.23791969 0.011798909 0.11905027 -0.041725215 0.022965979 0.027761606 -0.081849426 -0.027241033 -0.18805929 -0.018557947 -0.03597432 -0.20239903 -0.08194339 -0.028624736 0.05785868 0.048780344 -0.10004432 -0.07927546 0.015144728 -0.08256843 -0.0504842 -0.13039026 -0.098251835 0.081294395 0.08252617 -0.05992349 0.093248956 0.1274525 -0.06553053 -0.16852622 -0.03348179 -0.07433664 -0.07558613 0.136436 -0.048520695 -0.16972803 0.11116088 0.019187627 0.021378702 -0.120442055 -0.005054476 -0.13155267 0.18838164 -0.16597451 0.11169253 -0.13061304 0.0045407857 0.012486172 -0.11192578 0.06405541 -0.030147657 0.10568074 0.19275288 0.10771037 0.20745046 0.15494107 -0.16158009 0.047513057 0.06256869 0.11126256 0.16641699 -0.17126618 -0.106783494 0.07772985 0.0998109 0.018230407 -0.01700787 0.053602997 0.08090369 0.16317508 -0.16176921 0.097316414 -0.12081428 -0.14779197 0.14535686 0.0015910178 -0.103687234 -0.0807655 0.09724599 0.10217167 -0.06003734 0.1171222 0.063735895 -0.122479685 0.0037000454 -0.08346225 0.12374991 -0.16200644
case -0.08428515 -0.09109317 0.086118974 -0.059366994 0.065098815 0.00516828 -0.069242276 0.16700698 -0.10741999 0.12966189 0.0661144 -0.14619243 0.15118663 0.10995245 -0.011683713 -0.16408928 -0.133091 0.1254616 0.08166035 0.08358626 0.071045235 0.14814514 0.17821635 -0.18163115 0.102410376 -0.07837819 -0.16002385 -0.06723565 0.03794415 0.12567103 0.07438227 -0.10679764 0.09089078 -0.06515414 0.046247076 -0.1175148 0.063189015 -0.18475729 0.059117008 0.10547974 0.08703985 -0.0186418 -0.071417764 0.15456147 0.04118234 -0.14947425 -0.032065943 -0.15639924 -0.16649981 -0.072060116 0.03743934 0.063579015 0.20436822 -0.07791151 -0.13169815 -0.1574895 -0.07676819 -0.042340256 -0.15067796 0.10810231 -0.027626958 0.21274881 0.057495914 0.11975456 -0.066794485 0.16231051 0.15969896 0.10667623 -0.14472987 0.025091063 -0.011724916 0.02936158 -0.0035547323 -0.14231247 -0.12619674 -0.022528712 -0.07848272 0.060770437 -0.0037592496 -0.17417555 -0.09846176 0.025855636 0.0808625 -0.05123708 -0.032217573 0.0012393432 -0.052836984 0.02589812 0.029532768 -0.08164219 0.020125441 -0.09452986 0.03554919 0.1615314 0.02999562 0.12419516 0.14926563 0.042358246 0.17258355 -0.008136669
